{"learner":{"attributes":{"best_iteration":"11","best_ntree_limit":"12","scikit_learn":"{\"n_estimators\": 12, \"objective\": \"reg:squarederror\", \"max_depth\": null, \"max_leaves\": null, \"max_bin\": null, \"grow_policy\": null, \"learning_rate\": null, \"verbosity\": null, \"booster\": null, \"tree_method\": \"hist\", \"gamma\": null, \"min_child_weight\": null, \"max_delta_step\": null, \"subsample\": null, \"sampling_method\": null, \"colsample_bytree\": null, \"colsample_bylevel\": null, \"colsample_bynode\": null, \"reg_alpha\": null, \"reg_lambda\": null, \"scale_pos_weight\": null, \"base_score\": null, \"missing\": NaN, \"num_parallel_tree\": null, \"random_state\": null, \"n_jobs\": null, \"monotone_constraints\": null, \"interaction_constraints\": null, \"importance_type\": null, \"gpu_id\": null, \"validate_parameters\": null, \"predictor\": null, \"enable_categorical\": true, \"feature_types\": null, \"max_cat_to_onehot\": null, \"max_cat_threshold\": null, \"eval_metric\": null, \"early_stopping_rounds\": null, \"callbacks\": null, \"kwargs\": {\"seed\": 56}, \"_estimator_type\": \"regressor\"}"},"feature_names":["model","year","transmission","mileage","fuelType","tax","mpg","engineSize"],"feature_types":["c","int","c","int","c","int","float","float"],"gradient_booster":{"model":{"gbtree_model_param":{"num_parallel_tree":"1","num_trees":"12","size_leaf_vector":"0"},"tree_info":[0,0,0,0,0,0,0,0,0,0,0,0],"trees":[{"base_weights":[1.228349E4,1.1067194E4,1.7413271E4,1.0037763E4,1.5303395E4,1.6119086E4,2.3114695E4,6.8260044E3,1.0967438E4,9.642357E3,1.6868533E4,1.7523148E4,1.4141003E4,1.0332303E4,2.1772408E4,3.766032E3,7.357259E3,1.5314945E4,1.0625118E4,4.854243E3,1.0434561E4,1.9359309E4,1.5626758E4,1.9663025E4,1.6948697E4,1.4535677E4,3.21791E3,7.636117E3,2.100429E4,2.6630032E3,4.8312627E3,6.725697E3,8.076383E3,4.894577E3,4.247578E3,9.81931E3,1.1896592E4,3.7185898E3,1.8042397E3,1.1234412E4,8.823572E3,1.8728209E4,2.7521387E4,1.6200453E4,1.2203469E4,6.276898E3,5.55695E3,1.6772496E4,5.8121133E3,5.4397324E3,1.4244979E4,2.0281969E4,7.9157827E3,6.699271E2,9.7865717E2,1.5892026E3,1.0253608E3,2.0542368E3,1.3270941E3,2.457807E3,1.5036273E3,3.213597E3,2.792646E3,4.0678613E3,3.2921707E3,5.12825E2,1.1891338E3,3.0402295E3,3.5579976E3,2.7348074E3,2.062787E3,6.100482E3,5.31259E3,8.3489E3,2.3247751E3,5.36492E3,4.7107837E3,3.963532E3,2.8899565E3,5.0359478E3,1.9899E3,4.3661377E3,3.722201E3,6.1035107E3,2.9599875E3],"categories":[0,1,3,4,5,7,8,9,11,12,14,15,17,19,21,22,23,0,1,2,4,5,6,7,8,9,10,11,12,13,14,16,17,18,19,20,21,22,23,0,1,2,3,4,5,6,7,9,11,12,14,15,16,17,19,20,21,22,23,0,1,2,3,4,5,6,7,8,9,11,12,14,15,17,18,19,20,21,22,23,0,2,3,4,6,7,8,10,11,12,13,14,15,16,17,18,19,20,21,22,23,0,1,2,3,4,5,6,7,9,10,11,12,13,14,15,16,17,19,20,22,23,3,4,7,10,11,12,15,16,17,19,20,21,22,23,3,4,7,8,11,12,15,16,17,19,21,22,23,0,2,3,4,5,7,8,10,11,12,13,15,16,17,18,19,21,22,23,0,3,4,5,7,8,10,11,12,13,15,16,17,18,19,20,21,22,23,0,1,2,4,5,6,7,8,9,10,11,12,13,14,15,16,17,19,20,22,23,0,1,2,3,4,5,7,8,9,10,11,12,13,14,16,17,18,19,20,21,22,23,0,1,2,3,4,5,6,7,9,10,11,12,13,14,15,16,17,19,20,21,22,23,0,1,2,3,4,5,7,9,10,11,12,14,15,16,17,19,20,21,22,23],"categories_nodes":[5,6,8,11,12,14,31,32,35,36,41,42,43,44],"categories_segments":[0,17,39,59,80,101,122,136,149,168,187,208,230,252],"categories_sizes":[17,22,20,21,21,21,14,13,19,19,21,22,22,20],"default_left":[0,0,0,0,0,1,1,0,1,0,0,1,1,0,1,0,0,0,0,0,0,0,0,0,0,0,0,0,0,0,0,1,1,0,0,1,1,0,0,0,0,1,1,1,1,0,0,0,0,0,0,0,0,0,0,0,0,0,0,0,0,0,0,0,0,0,0,0,0,0,0,0,0,0,0,0,0,0,0,0,0,0,0,0,0],"id":0,"left_children":[1,3,5,7,9,11,13,15,17,19,21,23,25,-1,27,29,31,33,35,37,39,41,43,45,47,49,-1,-1,51,53,55,57,59,-1,-1,61,63,65,-1,67,69,71,73,75,77,-1,-1,79,-1,-1,81,83,-1,-1,-1,-1,-1,-1,-1,-1,-1,-1,-1,-1,-1,-1,-1,-1,-1,-1,-1,-1,-1,-1,-1,-1,-1,-1,-1,-1,-1,-1,-1,-1,-1],"loss_changes":[8.948495E10,5.0524193E10,1.9941032E10,2.7849196E10,1.9950207E10,5.9929395E9,6.9581373E9,3.38935E9,1.0628563E10,1.8231665E9,5.1936625E9,1.2771E9,1.1082138E9,0E0,7.547781E8,3.5490304E8,7.5864474E8,3.785769E8,6.773342E9,7.24768E7,4.4593152E8,2.5082593E9,2.141356E9,1.654784E6,1.1943936E8,6.178898E8,0E0,0E0,9.536799E8,3.2900608E7,8.597734E7,2.3851418E8,2.5546342E8,0E0,0E0,1.7787453E9,3.8467338E9,1.2436736E7,0E0,7.185613E7,1.9909632E7,5.376082E8,2.8153856E7,5.710971E8,3.2626074E8,0E0,0E0,2.727936E7,0E0,0E0,2.6207846E8,2.3904256E7,0E0,0E0,0E0,0E0,0E0,0E0,0E0,0E0,0E0,0E0,0E0,0E0,0E0,0E0,0E0,0E0,0E0,0E0,0E0,0E0,0E0,0E0,0E0,0E0,0E0,0E0,0E0,0E0,0E0,0E0,0E0,0E0,0E0],"parents":[2147483647,0,0,1,1,2,2,3,3,4,4,5,5,6,6,7,7,8,8,9,9,10,10,11,11,12,12,14,14,15,15,16,16,17,17,18,18,19,19,20,20,21,21,22,22,23,23,24,24,25,25,28,28,29,29,30,30,31,31,32,32,35,35,36,36,37,37,39,39,40,40,41,41,42,42,43,43,44,44,47,47,50,50,51,51],"right_children":[2,4,6,8,10,12,14,16,18,20,22,24,26,-1,28,30,32,34,36,38,40,42,44,46,48,50,-1,-1,52,54,56,58,60,-1,-1,62,64,66,-1,68,70,72,74,76,78,-1,-1,80,-1,-1,82,84,-1,-1,-1,-1,-1,-1,-1,-1,-1,-1,-1,-1,-1,-1,-1,-1,-1,-1,-1,-1,-1,-1,-1,-1,-1,-1,-1,-1,-1,-1,-1,-1,-1],"split_conditions":[2.019E3,2E0,1.6E0,2.016E3,2.016E3,NaN,NaN,2.013E3,NaN,2.013E3,5.23E1,NaN,NaN,1.0332303E4,NaN,2.01E3,2.015E3,1.8601E4,2.018E3,2.011E3,5.5535E4,2.2E0,4.254E4,4.792E3,2.02E3,4.21E1,3.21791E3,7.636117E3,2.2E0,2.009E3,7.9608E4,NaN,NaN,4.894577E3,4.247578E3,NaN,NaN,2.006E3,1.8042397E3,2.015E3,9E4,NaN,NaN,NaN,NaN,6.276898E3,5.55695E3,2.3278E4,5.8121133E3,5.4397324E3,1.1E0,2.9E4,7.9157827E3,6.699271E2,9.7865717E2,1.5892026E3,1.0253608E3,2.0542368E3,1.3270941E3,2.457807E3,1.5036273E3,3.213597E3,2.792646E3,4.0678613E3,3.2921707E3,5.12825E2,1.1891338E3,3.0402295E3,3.5579976E3,2.7348074E3,2.062787E3,6.100482E3,5.31259E3,8.3489E3,2.3247751E3,5.36492E3,4.7107837E3,3.963532E3,2.8899565E3,5.0359478E3,1.9899E3,4.3661377E3,3.722201E3,6.1035107E3,2.9599875E3],"split_indices":[1,7,7,1,1,0,0,1,0,1,6,0,0,0,0,1,1,3,1,1,3,7,3,3,1,6,0,0,7,1,3,0,0,0,0,0,0,1,0,1,3,0,0,0,0,0,0,3,0,0,7,3,0,0,0,0,0,0,0,0,0,0,0,0,0,0,0,0,0,0,0,0,0,0,0,0,0,0,0,0,0,0,0,0,0],"split_type":[0,0,0,0,0,1,1,0,1,0,0,1,1,0,1,0,0,0,0,0,0,0,0,0,0,0,0,0,0,0,0,1,1,0,0,1,1,0,0,0,0,1,1,1,1,0,0,0,0,0,0,0,0,0,0,0,0,0,0,0,0,0,0,0,0,0,0,0,0,0,0,0,0,0,0,0,0,0,0,0,0,0,0,0,0],"sum_hessian":[1.4372E4,1.162E4,2.752E3,9.351E3,2.269E3,2.246E3,5.06E2,2.101E3,7.25E3,4.93E2,1.776E3,1.309E3,9.37E2,5.1E1,4.55E2,3.12E2,1.789E3,5.26E2,6.724E3,7.1E1,4.22E2,5.86E2,1.19E3,2.7E2,1.039E3,8.37E2,1E2,7.3E1,3.82E2,1.55E2,1.57E2,9.58E2,8.31E2,2.75E2,2.51E2,4.121E3,2.603E3,3.8E1,3.3E1,2.78E2,1.44E2,5.47E2,3.9E1,1.016E3,1.74E2,1.2E2,1.5E2,9.76E2,6.3E1,5.8E1,7.79E2,3.41E2,4.1E1,9.3E1,6.2E1,1.16E2,4.1E1,9.08E2,5E1,7.99E2,3.2E1,1.492E3,2.629E3,9.24E2,1.679E3,5E0,3.3E1,1.07E2,1.71E2,1.22E2,2.2E1,2.05E2,3.42E2,3.8E1,1E0,2.24E2,7.92E2,1.22E2,5.2E1,9.74E2,2E0,6.61E2,1.18E2,3.38E2,3E0],"tree_param":{"num_deleted":"0","num_feature":"8","num_nodes":"85","size_leaf_vector":"0"}},{"base_weights":[8.609881E3,7.754611E3,1.2217029E4,1.1017574E4,7.086606E3,1.1301793E4,1.6249218E4,7.4790493E3,1.1731507E4,5.483395E3,8.126797E3,1.2285038E4,9.916555E3,2.4307404E4,1.5294667E4,8.73645E3,6.4681523E3,1.4373953E4,1.1039607E4,3.560725E3,5.9916787E3,7.7623E3,1.221627E4,1.3520876E4,1.167836E4,1.0191117E4,2.2620952E3,8.528937E3,6.3217217E3,5.3762393E3,1.4747335E4,2.9990967E3,2.4393787E3,3.7699575E3,2.0800913E3,5.9887275E3,1.3618168E4,1.054655E4,1.2395675E4,1.9663741E3,4.1277563E3,5.8960977E3,2.9741E3,7.943321E3,5.006943E3,1.3097563E4,1.0388347E4,4.683792E3,3.9423066E3,3.652483E3,3.3469785E3,1.0689865E4,9.022002E3,5.524949E3,1.416663E4,6.103387E2,1.262909E3,4.3919365E3,3.7496848E3,3.333821E3,2.9277258E3,3.8074165E3,3.2476199E3,7.5681354E2,4.6435028E2,1.3611742E3,1.0471893E3,1.9050062E3,1.5892953E3,2.209933E3,2.5684834E3,1.7441534E3,1.4264777E3,3.9452039E3,1.6920862E3,3.3860571E3,2.5700125E3,3.9105818E3,3.1349373E3,2.7181165E3,8.255662E2,4.287597E3,2.8804114E3],"categories":[0,1,2,4,5,6,7,9,10,11,12,14,16,17,19,20,22,23,0,1,3,4,5,7,8,9,11,12,14,15,17,19,21,22,23,0,1,2,4,5,6,7,8,9,10,11,12,13,14,16,17,18,19,20,21,22,23,0,1,2,4,5,6,7,9,10,11,12,13,14,16,17,18,19,20,22,23,0,2,3,4,6,7,8,10,11,12,13,14,15,16,17,18,19,20,21,22,23,0,1,2,3,4,5,6,7,9,10,11,12,13,14,15,16,17,19,20,22,23,3,4,7,8,11,12,13,15,16,17,18,19,21,22,23,0,1,2,3,4,5,6,7,8,9,10,11,12,13,14,15,17,18,19,20,21,22,23,0,1,3,0,1,2,3,4,5,7,8,9,10,11,12,13,15,16,17,18,19,20,21,22,23,0,1,2,3,4,5,7,8,9,10,11,12,13,14,15,16,17,18,19,20,21,22,23],"categories_nodes":[1,5,6,8,12,14,21,23,30,45,46],"categories_segments":[0,18,35,57,77,98,119,134,157,160,182],"categories_sizes":[18,17,22,20,21,21,15,23,3,22,23],"default_left":[0,1,0,0,0,1,1,0,1,0,0,0,1,0,1,0,0,0,0,0,0,1,0,1,0,0,0,0,0,0,1,0,0,0,0,0,0,0,0,0,0,0,0,0,0,1,1,0,0,0,0,0,0,0,0,0,0,0,0,0,0,0,0,0,0,0,0,0,0,0,0,0,0,0,0,0,0,0,0,0,0,0,0],"id":1,"left_children":[1,3,5,7,9,11,13,15,17,19,21,23,25,27,29,31,33,35,37,39,41,43,45,47,49,51,-1,-1,-1,-1,53,-1,-1,55,-1,-1,57,59,61,63,65,67,-1,69,71,73,75,-1,-1,-1,-1,77,79,-1,81,-1,-1,-1,-1,-1,-1,-1,-1,-1,-1,-1,-1,-1,-1,-1,-1,-1,-1,-1,-1,-1,-1,-1,-1,-1,-1,-1,-1],"loss_changes":[4.4247155E10,2.5251938E10,9.976021E9,4.896604E9,1.604649E10,2.938667E9,3.5280404E9,3.68042E8,2.8397404E9,3.6922655E9,8.625193E9,8.2427904E8,5.35126E8,9.438208E7,3.911516E8,3.0089216E7,2.1123891E8,1.1515249E9,7.411466E8,7.124091E8,1.067647E9,2.640642E9,6.3235686E8,1.3252198E8,9.372467E7,3.92192E8,0E0,0E0,0E0,0E0,5.5515546E8,0E0,0E0,1.4330496E7,0E0,0E0,1.60043E8,3.2089702E8,2.1417984E7,4.522656E7,1.3730816E8,7.6365005E8,0E0,1.7349345E9,4.027597E7,5.178573E7,1.6519168E8,0E0,0E0,0E0,0E0,1.914921E8,3.692339E7,0E0,5.449728E7,0E0,0E0,0E0,0E0,0E0,0E0,0E0,0E0,0E0,0E0,0E0,0E0,0E0,0E0,0E0,0E0,0E0,0E0,0E0,0E0,0E0,0E0,0E0,0E0,0E0,0E0,0E0,0E0],"parents":[2147483647,0,0,1,1,2,2,3,3,4,4,5,5,6,6,7,7,8,8,9,9,10,10,11,11,12,12,13,13,14,14,15,15,16,16,17,17,18,18,19,19,20,20,21,21,22,22,23,23,24,24,25,25,30,30,33,33,36,36,37,37,38,38,39,39,40,40,41,41,43,43,44,44,45,45,46,46,51,51,52,52,54,54],"right_children":[2,4,6,8,10,12,14,16,18,20,22,24,26,28,30,32,34,36,38,40,42,44,46,48,50,52,-1,-1,-1,-1,54,-1,-1,56,-1,-1,58,60,62,64,66,68,-1,70,72,74,76,-1,-1,-1,-1,78,80,-1,82,-1,-1,-1,-1,-1,-1,-1,-1,-1,-1,-1,-1,-1,-1,-1,-1,-1,-1,-1,-1,-1,-1,-1,-1,-1,-1,-1,-1],"split_conditions":[2.019E3,NaN,1.6E0,2.016E3,2.017E3,NaN,NaN,4.5112E4,NaN,2.014E3,1.7E0,5.14E1,NaN,3.1E1,NaN,2.9307E4,2.012E3,3.77E1,2.018E3,2.011E3,1.85E2,NaN,2.2199E4,NaN,6.213E3,9.438E3,2.2620952E3,8.528937E3,6.3217217E3,5.3762393E3,NaN,2.9990967E3,2.4393787E3,2.008E3,2.0800913E3,5.9887275E3,2.7401E4,6.01E1,6.14E1,7.3626E4,5.3362E4,3.3219E4,2.9741E3,2.018E3,5.66E1,NaN,NaN,4.683792E3,3.9423066E3,3.652483E3,3.3469785E3,4.21E1,4.202E4,5.524949E3,2.0106E4,6.103387E2,1.262909E3,4.3919365E3,3.7496848E3,3.333821E3,2.9277258E3,3.8074165E3,3.2476199E3,7.5681354E2,4.6435028E2,1.3611742E3,1.0471893E3,1.9050062E3,1.5892953E3,2.209933E3,2.5684834E3,1.7441534E3,1.4264777E3,3.9452039E3,1.6920862E3,3.3860571E3,2.5700125E3,3.9105818E3,3.1349373E3,2.7181165E3,8.255662E2,4.287597E3,2.8804114E3],"split_indices":[1,0,7,1,1,0,0,3,0,1,7,6,0,6,0,3,1,6,1,1,5,0,3,0,3,3,0,0,0,0,4,0,0,1,0,0,3,6,6,3,3,3,0,1,6,0,0,0,0,0,0,6,3,0,3,0,0,0,0,0,0,0,0,0,0,0,0,0,0,0,0,0,0,0,0,0,0,0,0,0,0,0,0],"split_type":[0,1,0,0,0,1,1,0,1,0,0,0,1,0,1,0,0,0,0,0,0,1,0,1,0,0,0,0,0,0,1,0,0,0,0,0,0,0,0,0,0,0,0,0,0,1,1,0,0,0,0,0,0,0,0,0,0,0,0,0,0,0,0,0,0,0,0,0,0,0,0,0,0,0,0,0,0,0,0,0,0,0,0],"sum_hessian":[1.4372E4,1.162E4,2.752E3,1.972E3,9.648E3,2.246E3,5.06E2,3.33E2,1.639E3,3.799E3,5.849E3,1.309E3,9.37E2,5.1E1,4.55E2,1.45E2,1.88E2,3.36E2,1.303E3,7.96E2,3.003E3,5.373E3,4.76E2,4.24E2,8.85E2,8.37E2,1E2,1.9E1,3.2E1,7.3E1,3.82E2,4.2E1,1.03E2,2.9E1,1.59E2,3.7E1,2.99E2,9.62E2,3.41E2,2.1E2,5.86E2,2.934E3,6.9E1,5.04E3,3.33E2,3.17E2,1.59E2,5.9E1,3.65E2,4.42E2,4.43E2,5.81E2,2.56E2,4.8E1,3.34E2,7E0,2.2E1,1.5E2,1.49E2,5.52E2,4.1E2,2.81E2,6E1,8.8E1,1.22E2,3.53E2,2.33E2,1.663E3,1.271E3,2.614E3,2.426E3,7.4E1,2.59E2,3.14E2,3E0,1.03E2,5.6E1,4.9E1,5.32E2,2.54E2,2E0,3.23E2,1.1E1],"tree_param":{"num_deleted":"0","num_feature":"8","num_nodes":"83","size_leaf_vector":"0"}},{"base_weights":[6.0358135E3,4.1835396E3,6.869027E3,6.021514E3,3.7852568E3,8.266795E3,5.5822583E3,6.903145E3,5.1641387E3,2.8141292E3,4.3366704E3,9.623006E3,7.138311E3,5.1295757E3,7.1147026E3,8.43185E3,6.04467E3,3.861909E3,5.554952E3,1.5364058E3,3.133017E3,4.1196523E3,6.133596E3,9.36215E3,1.5640798E4,7.978392E3,6.373678E3,5.530748E3,4.3883516E3,7.278524E3,5.300619E3,2.3213992E3,2.8251677E3,1.6197542E3,2.0195785E3,4.2347217E3,1.9904132E3,7.1178647E3,5.166989E3,9.8007605E2,1.867E3,4.0301187E3,2.939842E3,4.618459E3,3.725008E3,6.85926E3,4.6178896E3,1.0440025E4,8.657854E3,5.593986E3,3.8950322E3,7.8531577E3,3.3784675E3,5.9453354E3,7.569814E3,6.1425E3,4.943466E3,3.6911746E3,5.5947607E3,7.495937E3,5.9193677E3,1.8402336E3,1.4639132E3,7.8153723E2,1.3138818E3,1.3070045E2,6.168724E2,2.156254E3,4.617425E2,1.6784323E3,1.3574984E3,2.6387216E2,8.261712E2,7.57732E2,4.7637973E2,1.3097101E3,9.168639E2,9.103492E2,4.6381076E2,1.6074431E3,1.2764634E3,1.2570059E3,9.8103436E2,2.1029001E3,8.9811285E2,1.5937208E3,1.1279781E3,4.155013E3,2.989042E3,2.9512424E3,2.4737266E3,2.23999E3,2.545993E3,1.913464E3,1.5852032E3,2.4077046E3,1.9301874E3,2.0407549E3,1.6064053E3,1.5736295E3,1.3199458E3,1.1712854E3,9.659074E2,2.968221E3,1.614592E3,2.1996367E3,2.6739307E3,1.7836511E3,2.9200995E2],"categories":[0,1,2,4,5,6,7,11,12,14,16,19,22,23,0,1,2,4,5,7,9,11,12,17,19,22,23,0,1,2,4,5,6,7,9,10,11,12,13,14,16,17,19,22,23,0,3,4,6,7,8,10,11,12,13,14,15,16,17,18,19,20,21,22,23,0,1,2,4,5,6,7,9,10,11,12,13,14,16,17,19,20,22,23,0,1,3,4,7,8,9,10,11,12,13,14,15,16,17,18,19,20,21,22,23,3,4,7,8,9,10,11,12,13,15,16,17,18,19,20,21,22,23,0,3,4,5,7,8,9,10,11,12,13,15,16,17,18,19,20,21,22,23,0,3,4,5,7,8,9,10,11,12,13,15,16,17,18,19,20,21,22,23,0,1,2,3,4,5,7,8,9,10,11,12,13,15,16,17,18,19,20,21,22,23,0,1,2,4,5,6,7,9,10,11,12,13,14,15,16,17,19,20,21,22,23,0,1,2,4,5,6,7,9,10,11,12,13,14,15,16,17,19,20,22,23],"categories_nodes":[1,2,7,14,18,41,42,43,44,45,47,48],"categories_segments":[0,14,27,45,65,84,105,123,143,163,185,206],"categories_sizes":[14,13,18,20,19,21,18,20,20,22,21,20],"default_left":[0,1,1,0,0,0,0,1,0,0,0,0,0,0,1,0,0,0,1,0,0,0,0,0,0,0,0,0,0,0,0,0,0,0,0,0,0,0,0,0,0,1,1,1,1,1,0,1,1,0,0,0,0,0,0,0,0,0,0,0,0,0,0,0,0,0,0,0,0,0,0,0,0,0,0,0,0,0,0,0,0,0,0,0,0,0,0,0,0,0,0,0,0,0,0,0,0,0,0,0,0,0,0,0,0,0,0,0,0],"id":2,"left_children":[1,3,5,7,9,11,13,15,17,19,21,23,25,27,29,31,33,35,37,39,41,43,45,47,49,51,53,55,57,59,61,-1,-1,-1,-1,63,65,67,69,71,73,75,77,79,81,83,85,87,89,-1,-1,91,-1,93,95,97,99,101,103,105,107,-1,-1,-1,-1,-1,-1,-1,-1,-1,-1,-1,-1,-1,-1,-1,-1,-1,-1,-1,-1,-1,-1,-1,-1,-1,-1,-1,-1,-1,-1,-1,-1,-1,-1,-1,-1,-1,-1,-1,-1,-1,-1,-1,-1,-1,-1,-1,-1],"loss_changes":[2.2153691E10,3.2435405E9,1.7781555E10,5.6376934E8,1.9530588E9,7.19949E9,3.5458417E9,4.582277E8,1.85173E8,5.379103E8,8.868659E8,3.234857E9,1.6166994E9,1.1621908E9,3.1061197E8,2.079744E7,7.544422E7,5.9249536E7,1.5119053E8,4.746061E7,1.7271398E8,3.9421133E8,2.432983E8,1.4787707E9,4.6080614E8,4.1852928E8,6.538486E8,8.983511E8,1.1619103E9,2.732933E8,5.500672E6,0E0,0E0,0E0,0E0,7.478912E6,9.46392E5,1.1861504E7,4.389171E7,1.576164E7,2.669088E7,4.7446784E7,1.1140762E8,2.243543E8,2.3421235E8,7.611034E7,3.0078592E7,1.1815567E9,5.2944896E8,0E0,0E0,2.282537E8,0E0,2.5514803E8,1.3270016E8,6.1978214E8,1.9427533E8,7.725773E7,4.160635E8,1.4892237E8,1.3990912E7,0E0,0E0,0E0,0E0,0E0,0E0,0E0,0E0,0E0,0E0,0E0,0E0,0E0,0E0,0E0,0E0,0E0,0E0,0E0,0E0,0E0,0E0,0E0,0E0,0E0,0E0,0E0,0E0,0E0,0E0,0E0,0E0,0E0,0E0,0E0,0E0,0E0,0E0,0E0,0E0,0E0,0E0,0E0,0E0,0E0,0E0,0E0,0E0],"parents":[2147483647,0,0,1,1,2,2,3,3,4,4,5,5,6,6,7,7,8,8,9,9,10,10,11,11,12,12,13,13,14,14,15,15,16,16,17,17,18,18,19,19,20,20,21,21,22,22,23,23,24,24,25,25,26,26,27,27,28,28,29,29,30,30,35,35,36,36,37,37,38,38,39,39,40,40,41,41,42,42,43,43,44,44,45,45,46,46,47,47,48,48,51,51,53,53,54,54,55,55,56,56,57,57,58,58,59,59,60,60],"right_children":[2,4,6,8,10,12,14,16,18,20,22,24,26,28,30,32,34,36,38,40,42,44,46,48,50,52,54,56,58,60,62,-1,-1,-1,-1,64,66,68,70,72,74,76,78,80,82,84,86,88,90,-1,-1,92,-1,94,96,98,100,102,104,106,108,-1,-1,-1,-1,-1,-1,-1,-1,-1,-1,-1,-1,-1,-1,-1,-1,-1,-1,-1,-1,-1,-1,-1,-1,-1,-1,-1,-1,-1,-1,-1,-1,-1,-1,-1,-1,-1,-1,-1,-1,-1,-1,-1,-1,-1,-1,-1,-1],"split_conditions":[2.017E3,NaN,NaN,3.5924E4,2.015E3,5.76E1,2.019E3,NaN,2.014E3,2.012E3,1.7E0,2.2E0,1.4651E4,1.1E0,NaN,1.55E2,1.35E2,9.85E4,NaN,2.009E3,4.87E1,2.5724E4,5.1186E4,1.0323E4,3.17E1,2.02E3,1.6E0,6.42E1,1.5E0,1.2042E4,1.159E3,2.3213992E3,2.8251677E3,1.6197542E3,2.0195785E3,2.01E3,2.006E3,9E4,5.76E1,3.05E2,6.0002E4,NaN,NaN,NaN,NaN,NaN,7.9608E4,NaN,NaN,5.593986E3,3.8950322E3,1.1E0,3.3784675E3,2.4916E4,3.0884E4,1.649E4,2.0479E4,1.786E4,4.04E1,2.02E3,2.02E3,1.8402336E3,1.4639132E3,7.8153723E2,1.3138818E3,1.3070045E2,6.168724E2,2.156254E3,4.617425E2,1.6784323E3,1.3574984E3,2.6387216E2,8.261712E2,7.57732E2,4.7637973E2,1.3097101E3,9.168639E2,9.103492E2,4.6381076E2,1.6074431E3,1.2764634E3,1.2570059E3,9.8103436E2,2.1029001E3,8.9811285E2,1.5937208E3,1.1279781E3,4.155013E3,2.989042E3,2.9512424E3,2.4737266E3,2.23999E3,2.545993E3,1.913464E3,1.5852032E3,2.4077046E3,1.9301874E3,2.0407549E3,1.6064053E3,1.5736295E3,1.3199458E3,1.1712854E3,9.659074E2,2.968221E3,1.614592E3,2.1996367E3,2.6739307E3,1.7836511E3,2.9200995E2],"split_indices":[1,0,0,3,1,6,1,0,1,1,7,7,3,7,0,5,5,3,0,1,6,3,3,3,6,1,7,6,7,3,3,0,0,0,0,1,1,3,6,5,3,0,0,0,0,0,3,0,0,0,0,7,0,3,3,3,3,3,6,1,1,0,0,0,0,0,0,0,0,0,0,0,0,0,0,0,0,0,0,0,0,0,0,0,0,0,0,0,0,0,0,0,0,0,0,0,0,0,0,0,0,0,0,0,0,0,0,0,0],"split_type":[0,1,1,0,0,0,0,1,0,0,0,0,0,0,1,0,0,0,1,0,0,0,0,0,0,0,0,0,0,0,0,0,0,0,0,0,0,0,0,0,0,1,1,1,1,1,0,1,1,0,0,0,0,0,0,0,0,0,0,0,0,0,0,0,0,0,0,0,0,0,0,0,0,0,0,0,0,0,0,0,0,0,0,0,0,0,0,0,0,0,0,0,0,0,0,0,0,0,0,0,0,0,0,0,0,0,0,0,0],"sum_hessian":[1.4372E4,4.461E3,9.911E3,7.92E2,3.669E3,4.748E3,5.163E3,3.87E2,4.05E2,1.331E3,2.338E3,2.153E3,2.595E3,3.989E3,1.174E3,1.36E2,2.51E2,9.6E1,3.09E2,2.67E2,1.064E3,2.089E3,2.49E2,2.066E3,8.7E1,1.232E3,1.363E3,2.584E3,1.405E3,1.074E3,1E2,8.5E1,5.1E1,1.34E2,1.17E2,7.9E1,1.7E1,5.8E1,2.51E2,1.01E2,1.66E2,1.85E2,8.79E2,9.18E2,1.171E3,1.66E2,8.3E1,8.11E2,1.255E3,3.8E1,4.9E1,1.19E3,4.2E1,1.008E3,3.55E2,1.261E3,1.323E3,8.93E2,5.12E2,9.22E2,1.52E2,2.9E1,7.1E1,8E0,7.1E1,1E0,1.6E1,5.7E1,1E0,1.46E2,1.05E2,9.7E1,4E0,4.7E1,1.19E2,1.35E2,5E1,8.22E2,5.7E1,2.98E2,6.2E2,5.75E2,5.96E2,1.59E2,7E0,4.3E1,4E1,9.6E1,7.15E2,3.19E2,9.36E2,7.47E2,4.43E2,6.04E2,4.04E2,2.49E2,1.06E2,6.82E2,5.79E2,8.45E2,4.78E2,6.1E2,2.83E2,2.2E1,4.9E2,8.32E2,9E1,1.51E2,1E0],"tree_param":{"num_deleted":"0","num_feature":"8","num_nodes":"109","size_leaf_vector":"0"}},{"base_weights":[4.2317227E3,3.7910183E3,6.0904917E3,3.4118394E3,5.3514985E3,5.595027E3,8.274356E3,3.8556912E3,2.501467E3,6.085302E3,3.7071812E3,6.2534287E3,4.989018E3,1.2741661E4,7.7467817E3,4.550716E3,3.4234202E3,2.8416187E3,1.6904342E3,8.432894E3,5.8492407E3,4.183378E3,2.4180142E3,7.0259307E3,5.9008696E3,6.989233E3,4.8807876E3,1.3053829E4,9.874926E2,7.4628335E3,9.603492E3,4.0969824E3,5.151283E3,3.7730508E3,2.9198574E3,3.3121323E3,2.4473135E3,9.8781415E2,1.8936292E3,9.671684E3,1.99491E3,4.835469E3,6.2030806E3,3.5197217E3,4.760579E3,1.4716553E3,2.7408755E3,2.273709E3,1.9611603E3,5.5462036E3,6.3892446E3,2.1302756E3,7.724098E2,5.169123E3,3.7634236E3,4.7762373E3,3.4489968E3,9.25788E3,7.1799473E3,1.0246557E4,1.0639149E3,1.4809965E3,1.1328988E3,1.5028468E3,2.1452188E3,1.2880458E3,1.0396392E3,7.3681854E2,1.1879417E3,1.3474854E3,9.3565076E2,6.437385E2,9.04189E2,3.3741153E2,9.964742E1,8.9490393E2,5.282805E2,3.2501536E3,2.4820881E3,1.6890292E3,1.2392949E3,2.0177993E3,1.7422715E3,9.233195E2,1.1766947E3,1.6504917E3,1.3066104E3,7.004978E2,3.2456375E2,8.61341E2,4.606873E2,1.6676841E3,-3.3872316E0,1.8041666E3,2.377035E3,1.7337983E3,1.3782102E3,1.5279612E3,1.0693224E3,2.814726E3,4.5463522E2,1.8443682E3,2.255647E3,1.6912534E3,3.1874958E3],"categories":[0,1,2,3,4,5,7,8,9,11,12,14,15,17,19,21,22,23,0,1,2,4,5,6,7,8,9,10,11,12,13,14,16,17,18,19,20,21,22,23,0,1,3,4,5,7,11,12,15,16,17,19,21,22,23,0,1,2,4,5,6,7,8,9,10,11,12,13,14,16,17,18,19,20,21,22,23,2,0,3,4,5,7,11,12,15,16,17,19,21,22,23,0,0,1,2,3,4,5,6,7,11,12,15,16,17,19,21,22,23,0,0,1,2,3,4,5,6,7,8,9,11,12,15,16,17,18,19,21,22,23,0,2,3,4,7,10,11,12,13,14,15,17,19,20,21,22,23,0,1,2,3,4,5,6,7,8,11,12,15,16,17,19,21,22,23,0,1,2,3,4,5,7,9,10,11,12,13,14,15,16,17,19,20,22,23,0,1,2,4,5,6,7,9,10,11,12,13,14,16,17,19,20,22,23,0,0,3,4,5,6,7,8,10,11,12,13,14,15,16,17,18,19,20,21,22,23],"categories_nodes":[5,6,7,9,14,17,25,31,32,35,37,38,41,44,50,54],"categories_segments":[0,18,40,55,77,78,92,93,110,111,131,148,166,186,205,206],"categories_sizes":[18,22,15,22,1,14,1,17,1,20,17,18,20,19,1,21],"default_left":[0,0,0,0,0,1,1,1,0,1,0,0,0,0,1,0,0,1,0,0,0,0,0,0,0,1,0,0,0,0,0,1,1,0,0,1,0,1,1,0,0,1,0,0,1,0,0,0,0,0,1,0,0,0,1,0,0,0,0,0,0,0,0,0,0,0,0,0,0,0,0,0,0,0,0,0,0,0,0,0,0,0,0,0,0,0,0,0,0,0,0,0,0,0,0,0,0,0,0,0,0,0,0,0,0],"id":3,"left_children":[1,3,5,7,9,11,13,15,17,19,21,23,25,27,29,31,33,35,37,39,41,43,45,47,49,51,53,55,-1,57,59,61,63,65,67,69,71,73,75,77,-1,79,81,83,85,87,89,-1,-1,91,93,-1,-1,95,97,-1,-1,99,101,103,-1,-1,-1,-1,-1,-1,-1,-1,-1,-1,-1,-1,-1,-1,-1,-1,-1,-1,-1,-1,-1,-1,-1,-1,-1,-1,-1,-1,-1,-1,-1,-1,-1,-1,-1,-1,-1,-1,-1,-1,-1,-1,-1,-1,-1],"loss_changes":[1.1750801E10,6.8579E9,2.9325394E9,3.769221E9,2.7164385E9,8.6534554E8,1.0962084E9,1.872683E9,8.415785E8,8.196219E8,4.2145485E8,2.507776E8,2.2025626E8,1.1043123E8,1.6873882E8,6.347981E8,6.719201E8,3.9263027E8,1.2790656E8,2.4715571E8,4.8224666E8,1.7937203E8,5.4630656E7,3.9929856E7,9.325978E7,1.0313472E7,3.407401E8,4.018176E7,0E0,1.3664666E8,1.8568294E8,3.5183616E8,2.567598E8,3.5106406E8,7.5909734E8,2.0987802E8,1.9497114E8,1.8115616E7,9.651379E7,4.1970176E7,0E0,1.8610893E8,1.7913037E8,3.099008E7,5.741568E7,1.4635744E7,1.7884608E7,0E0,0E0,3.1081472E7,1.2856627E8,0E0,0E0,2.8436685E8,4.3508224E7,0E0,0E0,3.495731E7,7.61856E7,2.9055488E7,0E0,0E0,0E0,0E0,0E0,0E0,0E0,0E0,0E0,0E0,0E0,0E0,0E0,0E0,0E0,0E0,0E0,0E0,0E0,0E0,0E0,0E0,0E0,0E0,0E0,0E0,0E0,0E0,0E0,0E0,0E0,0E0,0E0,0E0,0E0,0E0,0E0,0E0,0E0,0E0,0E0,0E0,0E0,0E0,0E0],"parents":[2147483647,0,0,1,1,2,2,3,3,4,4,5,5,6,6,7,7,8,8,9,9,10,10,11,11,12,12,13,13,14,14,15,15,16,16,17,17,18,18,19,19,20,20,21,21,22,22,23,23,24,24,25,25,26,26,27,27,29,29,30,30,31,31,32,32,33,33,34,34,35,35,36,36,37,37,38,38,39,39,41,41,42,42,43,43,44,44,45,45,46,46,49,49,50,50,53,53,54,54,57,57,58,58,59,59],"right_children":[2,4,6,8,10,12,14,16,18,20,22,24,26,28,30,32,34,36,38,40,42,44,46,48,50,52,54,56,-1,58,60,62,64,66,68,70,72,74,76,78,-1,80,82,84,86,88,90,-1,-1,92,94,-1,-1,96,98,-1,-1,100,102,104,-1,-1,-1,-1,-1,-1,-1,-1,-1,-1,-1,-1,-1,-1,-1,-1,-1,-1,-1,-1,-1,-1,-1,-1,-1,-1,-1,-1,-1,-1,-1,-1,-1,-1,-1,-1,-1,-1,-1,-1,-1,-1,-1,-1,-1],"split_conditions":[2.019E3,2E0,1.6E0,2.8825E4,3.7E4,NaN,NaN,NaN,4.9766E4,NaN,6.7E4,4.213E3,4.15E1,3.77E1,NaN,2.018E3,1.1E0,NaN,2.012E3,4.87E1,2.017E3,2.016E3,2.013E3,5.14E1,1.1E0,NaN,1.1E0,2.63E1,9.874926E2,3.49E1,1.8459E4,NaN,NaN,6.42E1,1.5E0,NaN,1.35E2,NaN,NaN,1.5E2,1.99491E3,NaN,1.7653E4,2.015E3,NaN,7.9608E4,1.13E5,2.273709E3,1.9611603E3,2.3278E4,NaN,2.1302756E3,7.724098E2,5.65E1,NaN,4.7762373E3,3.4489968E3,1.0871E4,3.87E1,3.77E1,1.0639149E3,1.4809965E3,1.1328988E3,1.5028468E3,2.1452188E3,1.2880458E3,1.0396392E3,7.3681854E2,1.1879417E3,1.3474854E3,9.3565076E2,6.437385E2,9.04189E2,3.3741153E2,9.964742E1,8.9490393E2,5.282805E2,3.2501536E3,2.4820881E3,1.6890292E3,1.2392949E3,2.0177993E3,1.7422715E3,9.233195E2,1.1766947E3,1.6504917E3,1.3066104E3,7.004978E2,3.2456375E2,8.61341E2,4.606873E2,1.6676841E3,-3.3872316E0,1.8041666E3,2.377035E3,1.7337983E3,1.3782102E3,1.5279612E3,1.0693224E3,2.814726E3,4.5463522E2,1.8443682E3,2.255647E3,1.6912534E3,3.1874958E3],"split_indices":[1,7,7,3,3,0,0,0,3,0,3,3,6,6,2,1,7,0,1,6,1,1,1,6,7,2,7,6,0,6,3,0,2,6,7,0,5,0,0,5,0,0,3,1,0,3,3,0,0,3,2,0,0,6,0,0,0,3,6,6,0,0,0,0,0,0,0,0,0,0,0,0,0,0,0,0,0,0,0,0,0,0,0,0,0,0,0,0,0,0,0,0,0,0,0,0,0,0,0,0,0,0,0,0,0],"split_type":[0,0,0,0,0,1,1,1,0,1,0,0,0,0,1,0,0,1,0,0,0,0,0,0,0,1,0,0,0,0,0,1,1,0,0,1,0,1,1,0,0,1,0,0,1,0,0,0,0,0,1,0,0,0,1,0,0,0,0,0,0,0,0,0,0,0,0,0,0,0,0,0,0,0,0,0,0,0,0,0,0,0,0,0,0,0,0,0,0,0,0,0,0,0,0,0,0,0,0,0,0,0,0,0,0],"sum_hessian":[1.4372E4,1.162E4,2.752E3,9.351E3,2.269E3,2.246E3,5.06E2,6.284E3,3.067E3,1.567E3,7.02E2,1.072E3,1.174E3,5.1E1,4.55E2,2.406E3,3.878E3,2.159E3,9.08E2,1.4E2,1.427E3,5.11E2,1.91E2,3.3E2,7.42E2,5.7E1,1.117E3,4.9E1,2E0,3.99E2,5.6E1,1.375E3,1.031E3,2.285E3,1.593E3,9.81E2,1.178E3,2.05E2,7.03E2,8E1,6E1,3.73E2,1.054E3,2.41E2,2.7E2,5E1,1.41E2,1.48E2,1.82E2,4.37E2,3.05E2,5.5E1,2E0,8.85E2,2.32E2,1.4E1,3.5E1,5E1,3.49E2,5E1,6E0,3.76E2,9.99E2,9.66E2,6.5E1,8.44E2,1.441E3,1.104E3,4.89E2,1.35E2,8.46E2,7.72E2,4.06E2,1.69E2,3.6E1,7.4E1,6.29E2,4E1,4E1,1.72E2,2.01E2,4.47E2,6.07E2,1.19E2,1.22E2,9.1E1,1.79E2,1.4E1,3.6E1,1.26E2,1.5E1,4.36E2,1E0,2.49E2,5.6E1,4.25E2,4.6E2,2.7E1,2.05E2,4.9E1,1E0,9.1E1,2.58E2,5E0,4.5E1],"tree_param":{"num_deleted":"0","num_feature":"8","num_nodes":"105","size_leaf_vector":"0"}},{"base_weights":[2.967719E3,2.404895E3,3.753413E3,3.5515508E3,2.1330261E3,3.21097E3,4.894815E3,3.810149E3,2.5020186E3,1.5279799E3,2.434007E3,3.8180586E3,2.8262966E3,7.831337E3,4.657221E3,4.613101E3,3.4666338E3,2.7365256E3,1.9178016E3,1.7076892E3,9.376272E2,2.2770947E3,3.4598394E3,4.1125034E3,2.4991826E3,2.987217E3,1.8186532E3,9.449074E3,6.6163037E3,5.3145996E3,4.2932266E3,7.1238755E3,4.402073E3,4.191468E3,3.2398928E3,2.9643616E3,2.0567734E3,2.1364019E3,1.1820924E3,1.7942247E3,2.6741E2,1.1138044E3,5.0253564E2,2.6246294E3,2.0737634E3,3.9259587E3,2.4460354E3,1.743812E3,4.01281E3,9.737163E2,2.3596653E3,3.6533867E3,2.8199072E3,1.8851663E3,8.4771967E2,9.559136E3,4.5982266E2,2.0920435E3,4.101687E3,6.2446733E3,5.0826006E3,4.679286E3,3.8300127E3,2.9086284E3,1.8429907E3,1.1678274E3,1.415838E3,1.0937787E3,1.4264768E3,6.6469543E2,1.0202651E3,6.9931116E2,9.976789E2,6.220451E2,1.6062943E2,6.054612E2,1.2546661E3,1.666331E2,4.0803525E2,4.700364E2,6.3080695E2,1.2006518E2,-6.9485874E0,2.1582741E2,4.094761E2,1.0940379E2,4.3885428E2,8.316923E2,5.6807324E2,6.998514E2,4.7791452E2,2.3540276E3,1.1392671E3,7.5693774E2,2.3951553E2,1.3154387E3,1.1417186E3,8.906421E2,6.7570825E2,1.1342076E3,9.4624817E2,9.1576306E2,7.36892E2,6.1785016E2,4.731326E2,2.7201962E2,9.7792496E1,3.1661562E3,2.4078513E3,2.2762267E2,1.2951112E3,1.9101433E3,8.4471545E2,2.4016226E3,1.506097E3,2.55747E3,1.3828124E3,1.217694E3,8.481633E2],"categories":[0,1,2,4,5,6,7,9,11,12,14,16,19,22,23,0,1,2,4,5,6,7,8,9,10,11,12,13,14,16,17,19,20,21,22,23,0,1,2,4,5,6,7,9,10,11,12,13,14,16,17,19,20,22,23,1,3,4,7,8,10,11,12,13,15,16,17,18,19,20,21,22,0,2,3,4,5,7,8,10,11,12,13,15,16,17,18,19,20,21,22,23,0,1,2,3,4,7,8,9,10,11,12,13,14,15,16,17,18,19,20,21,22,23,0,1,2,3,4,5,6,7,8,9,10,11,12,13,14,15,17,18,19,20,21,22,23,1,0,1,2,3,4,5,6,7,8,9,11,12,14,15,16,17,18,19,20,21,22,23,0,1,3,4,6,7,8,9,10,11,12,13,14,15,16,17,18,19,20,21,22,23,0,1,2,3,4,6,7,8,9,10,12,13,14,15,16,17,18,19,20,21,22,23,0,1,2,3,4,5,6,7,8,9,10,11,12,13,14,16,17,19,20,21,22,23,0,1,2,3,4,5,7,8,9,10,11,12,15,16,17,18,19,20,22,23,0,1,3,4,0,1,2,3,4,5,7,10,11,12,14,15,16,17,18,19,21,22,23],"categories_nodes":[1,6,7,16,19,21,22,23,29,36,51,53,55,59,61,62],"categories_segments":[0,15,36,55,56,72,92,114,137,138,160,182,204,226,246,250],"categories_sizes":[15,21,19,1,16,20,22,23,1,22,22,22,22,20,4,19],"default_left":[0,1,0,0,0,0,1,1,0,0,0,0,0,0,0,0,1,0,0,1,0,1,1,1,0,0,0,0,0,1,0,0,0,0,0,0,1,0,0,0,0,0,0,0,0,0,0,0,0,0,0,1,0,1,0,1,0,0,0,1,0,1,1,0,0,0,0,0,0,0,0,0,0,0,0,0,0,0,0,0,0,0,0,0,0,0,0,0,0,0,0,0,0,0,0,0,0,0,0,0,0,0,0,0,0,0,0,0,0,0,0,0,0,0,0,0,0,0,0],"id":4,"left_children":[1,3,5,7,9,11,13,15,17,19,21,23,25,27,29,31,33,35,37,39,41,43,45,47,49,51,53,55,57,59,61,63,65,67,69,71,73,75,77,79,81,83,85,87,89,91,93,-1,95,-1,97,99,101,103,105,107,-1,-1,109,111,113,115,117,-1,-1,-1,-1,-1,-1,-1,-1,-1,-1,-1,-1,-1,-1,-1,-1,-1,-1,-1,-1,-1,-1,-1,-1,-1,-1,-1,-1,-1,-1,-1,-1,-1,-1,-1,-1,-1,-1,-1,-1,-1,-1,-1,-1,-1,-1,-1,-1,-1,-1,-1,-1,-1,-1,-1,-1],"loss_changes":[6.3468093E9,2.6038723E9,3.6973036E9,4.2580378E8,1.2298752E9,9.392128E8,1.3100851E9,3.3844634E8,3.859277E7,2.3742362E8,7.200092E8,6.0135014E8,3.9897088E8,2.1856358E8,4.0502067E8,1.7104026E8,1.3499187E8,2.8904064E7,1.2753056E7,2.1464064E8,3.9913216E7,2.7191706E8,2.7298355E8,1.9465216E8,2.2546048E7,2.2921626E8,2.0746496E7,3.675392E7,4.774016E7,1.0484736E8,1.8880512E8,1.1042944E7,3.90144E7,4.7829504E7,1.0673613E8,3.0453888E7,4.15136E5,8.969888E6,1.92195E6,1.1092019E8,3.829686E6,3.615616E7,1.9853836E7,1.5075328E8,3.0526976E8,1.7560474E8,2.2245888E7,0E0,7.713587E7,0E0,9.523328E6,1.5276032E7,1.3816013E8,1.4098816E7,4.43372E5,3.735552E6,0E0,0E0,6.083232E6,3.3305088E7,5.300736E7,1.2900659E8,1.1044608E8,0E0,0E0,0E0,0E0,0E0,0E0,0E0,0E0,0E0,0E0,0E0,0E0,0E0,0E0,0E0,0E0,0E0,0E0,0E0,0E0,0E0,0E0,0E0,0E0,0E0,0E0,0E0,0E0,0E0,0E0,0E0,0E0,0E0,0E0,0E0,0E0,0E0,0E0,0E0,0E0,0E0,0E0,0E0,0E0,0E0,0E0,0E0,0E0,0E0,0E0,0E0,0E0,0E0,0E0,0E0,0E0],"parents":[2147483647,0,0,1,1,2,2,3,3,4,4,5,5,6,6,7,7,8,8,9,9,10,10,11,11,12,12,13,13,14,14,15,15,16,16,17,17,18,18,19,19,20,20,21,21,22,22,23,23,24,24,25,25,26,26,27,27,28,28,29,29,30,30,31,31,32,32,33,33,34,34,35,35,36,36,37,37,38,38,39,39,40,40,41,41,42,42,43,43,44,44,45,45,46,46,48,48,50,50,51,51,52,52,53,53,54,54,55,55,58,58,59,59,60,60,61,61,62,62],"right_children":[2,4,6,8,10,12,14,16,18,20,22,24,26,28,30,32,34,36,38,40,42,44,46,48,50,52,54,56,58,60,62,64,66,68,70,72,74,76,78,80,82,84,86,88,90,92,94,-1,96,-1,98,100,102,104,106,108,-1,-1,110,112,114,116,118,-1,-1,-1,-1,-1,-1,-1,-1,-1,-1,-1,-1,-1,-1,-1,-1,-1,-1,-1,-1,-1,-1,-1,-1,-1,-1,-1,-1,-1,-1,-1,-1,-1,-1,-1,-1,-1,-1,-1,-1,-1,-1,-1,-1,-1,-1,-1,-1,-1,-1,-1,-1,-1,-1,-1,-1],"split_conditions":[2.018E3,NaN,1.5E0,4.4654E4,2.016E3,7.872E3,NaN,NaN,6.7E4,6.0002E4,1.6E0,1.1E0,1.1E0,5.154E3,4.41E1,3.62E1,NaN,6.01E1,9.85E4,NaN,8.5E4,NaN,NaN,NaN,9.15E2,5.65E1,2.759E4,5.54E1,5.54E1,NaN,1.2411E4,1.5E2,2.017E3,5.33E1,5.42E1,2.015E3,NaN,2.4E2,2.008E3,1.5E0,2.015E3,1.5E0,2.015E3,3.9371E4,1.2E0,3.71E1,9.85E4,1.743812E3,3.184E3,9.737163E2,4.41E1,NaN,1.632E4,NaN,3.796E4,NaN,4.5982266E2,2.0920435E3,6.653E3,NaN,3.21E1,NaN,NaN,2.9086284E3,1.8429907E3,1.1678274E3,1.415838E3,1.0937787E3,1.4264768E3,6.6469543E2,1.0202651E3,6.9931116E2,9.976789E2,6.220451E2,1.6062943E2,6.054612E2,1.2546661E3,1.666331E2,4.0803525E2,4.700364E2,6.3080695E2,1.2006518E2,-6.9485874E0,2.1582741E2,4.094761E2,1.0940379E2,4.3885428E2,8.316923E2,5.6807324E2,6.998514E2,4.7791452E2,2.3540276E3,1.1392671E3,7.5693774E2,2.3951553E2,1.3154387E3,1.1417186E3,8.906421E2,6.7570825E2,1.1342076E3,9.4624817E2,9.1576306E2,7.36892E2,6.1785016E2,4.731326E2,2.7201962E2,9.7792496E1,3.1661562E3,2.4078513E3,2.2762267E2,1.2951112E3,1.9101433E3,8.4471545E2,2.4016226E3,1.506097E3,2.55747E3,1.3828124E3,1.217694E3,8.481633E2],"split_indices":[1,0,7,3,1,3,0,0,3,3,7,7,7,3,6,6,2,6,3,0,3,0,0,0,3,6,3,6,6,2,3,5,1,6,6,1,0,5,1,7,1,7,1,3,7,6,3,0,3,0,6,0,3,0,3,0,0,0,3,0,6,4,0,0,0,0,0,0,0,0,0,0,0,0,0,0,0,0,0,0,0,0,0,0,0,0,0,0,0,0,0,0,0,0,0,0,0,0,0,0,0,0,0,0,0,0,0,0,0,0,0,0,0,0,0,0,0,0,0],"split_type":[0,1,0,0,0,0,1,1,0,0,0,0,0,0,0,0,1,0,0,1,0,1,1,1,0,0,0,0,0,1,0,0,0,0,0,0,1,0,0,0,0,0,0,0,0,0,0,0,0,0,0,1,0,1,0,1,0,0,0,1,0,1,1,0,0,0,0,0,0,0,0,0,0,0,0,0,0,0,0,0,0,0,0,0,0,0,0,0,0,0,0,0,0,0,0,0,0,0,0,0,0,0,0,0,0,0,0,0,0,0,0,0,0,0,0,0,0,0,0],"sum_hessian":[1.4372E4,8.376E3,5.996E3,1.603E3,6.773E3,4.067E3,1.929E3,1.284E3,3.19E2,2.252E3,4.521E3,1.574E3,2.493E3,1.42E2,1.787E3,3.81E2,9.03E2,2.25E2,9.4E1,1.725E3,5.27E2,3.924E3,5.97E2,1.285E3,2.89E2,2.148E3,3.45E2,5.8E1,8.4E1,6.32E2,1.155E3,2.7E1,3.54E2,2.11E2,6.92E2,1.66E2,5.9E1,7.1E1,2.3E1,1.627E3,9.8E1,3.74E2,1.53E2,1.444E3,2.48E3,4.07E2,1.9E2,6.8E1,1.217E3,4.2E1,2.47E2,4.27E2,1.721E3,3.22E2,2.3E1,5.7E1,1E0,7.2E1,1.2E1,1.21E2,5.11E2,6.25E2,5.3E2,5E0,2.2E1,1.41E2,2.13E2,1.11E2,1E2,9.6E1,5.96E2,6.3E1,1.03E2,5.8E1,1E0,6.9E1,2E0,6E0,1.7E1,9.4E2,6.87E2,6.7E1,3.1E1,1.47E2,2.27E2,1.35E2,1.8E1,1.199E3,2.45E2,1.609E3,8.71E2,1.1E1,3.96E2,1.81E2,9E0,4.28E2,7.89E2,3.3E1,2.14E2,3.35E2,9.2E1,1.045E3,6.76E2,2.02E2,1.2E2,2E1,3E0,3.1E1,2.6E1,1E0,1.1E1,1.16E2,5E0,8E0,5.03E2,9E0,6.16E2,4.29E2,1.01E2],"tree_param":{"num_deleted":"0","num_feature":"8","num_nodes":"119","size_leaf_vector":"0"}},{"base_weights":[2.081589E3,1.4006731E3,2.4220076E3,1.6764655E3,1.1115703E3,2.8650276E3,1.9510099E3,2.566719E3,1.600519E3,1.4607878E3,7.025294E2,3.1102258E3,1.9102618E3,2.3963306E3,1.6759543E3,2.5961685E3,-4.3251125E1,1.7549551E3,1.1970302E3,1.8707207E3,1.2741467E3,8.686574E2,3.0119498E2,4.5690684E3,2.9303704E3,6.420149E2,2.1391594E3,2.5178901E3,1.6320311E3,1.7727557E3,8.6310175E2,1.1436957E3,2.5213535E3,2.1992502E3,1.6842231E3,1.3276914E3,7.556804E2,7.293493E2,1.7781277E3,1.3520122E3,9.114209E2,7.5484375E2,1.5836783E3,2.1483893E2,4.671203E2,6.8549697E3,4.2766235E3,2.6969412E3,3.4150396E3,5.649532E2,7.423197E2,2.7474158E3,1.9943008E3,3.0329592E3,2.3235762E3,2.1759578E3,1.3944525E3,1.8589761E3,1.0255475E3,3.964819E2,1.1429529E3,5.2014553E1,7.600304E2,6.3348505E2,8.923166E2,4.7805637E2,5.967142E2,5.953942E2,3.6521338E2,7.970379E2,1.8786566E2,6.040704E2,4.8184464E2,2.0681386E2,4.104407E2,2.8552505E2,-7.864705E1,2.5165656E2,2.9141905E1,4.975246E2,3.3109412E2,8.531935E1,5.1693892E0,1.8898096E2,5.5707134E1,2.2089534E3,1.4277297E3,1.4696912E3,1.1154323E3,9.28304E2,7.218167E2,9.9113214E2,1.6607346E3,-1.7797085E1,2.2201256E2,8.8238495E2,4.3437054E2,6.387899E2,4.7142923E2,9.370474E2,5.432321E2,6.761598E2,9.944701E2,3.8153842E2,6.849702E2,5.463138E2,3.747763E2,7.2216626E2,5.3087024E2,3.6571573E2,2.6681195E2,-8.196609E1,1.830734E2,5.2603595E2,2.692672E2],"categories":[0,3,4,5,7,11,12,15,16,17,19,21,22,23,0,1,2,4,5,7,11,12,19,22,23,0,1,2,3,4,5,6,7,9,11,12,13,14,15,16,17,19,21,22,23,0,1,2,4,5,6,7,9,10,11,12,13,14,17,19,20,22,23,0,3,4,6,7,8,9,10,11,12,13,14,15,16,17,18,19,20,21,22,23,1,0,1,2,4,5,6,7,9,10,11,12,13,14,16,19,20,22,23,0,3,4,6,7,8,9,10,11,12,13,14,15,16,17,18,19,20,21,22,23,0,1,2,3,4,5,6,7,8,9,10,11,12,13,15,16,17,18,19,20,21,22,23,1,1,2,3,4,6,7,8,9,10,11,13,14,15,16,17,18,19,20,21,22,23,1,0,1,3,4,6,7,8,9,10,11,12,13,14,15,16,17,18,19,20,21,22,23],"categories_nodes":[1,2,3,11,13,19,26,29,35,36,41,46,53],"categories_segments":[0,14,25,45,63,84,85,103,124,147,148,169,170],"categories_sizes":[14,11,20,18,21,1,18,21,23,1,21,1,22],"default_left":[0,1,1,1,0,0,0,0,0,0,0,1,0,1,0,0,0,0,0,1,0,0,0,0,0,0,1,0,0,1,0,0,0,0,0,1,1,0,0,0,0,1,0,0,0,0,1,0,0,0,0,0,0,1,0,0,0,0,0,0,0,0,0,0,0,0,0,0,0,0,0,0,0,0,0,0,0,0,0,0,0,0,0,0,0,0,0,0,0,0,0,0,0,0,0,0,0,0,0,0,0,0,0,0,0,0,0,0,0,0,0,0,0,0,0],"id":5,"left_children":[1,3,5,7,9,11,13,15,17,19,21,23,25,27,29,31,-1,33,35,37,39,41,43,45,47,49,51,53,55,57,59,-1,61,63,65,67,69,-1,71,73,75,77,79,81,83,85,87,89,91,93,-1,95,97,99,101,103,105,107,109,111,113,-1,-1,-1,-1,-1,-1,-1,-1,-1,-1,-1,-1,-1,-1,-1,-1,-1,-1,-1,-1,-1,-1,-1,-1,-1,-1,-1,-1,-1,-1,-1,-1,-1,-1,-1,-1,-1,-1,-1,-1,-1,-1,-1,-1,-1,-1,-1,-1,-1,-1,-1,-1,-1,-1],"loss_changes":[3.328213E9,3.8029414E8,1.9935928E9,1.6160768E8,3.336581E8,1.1493745E9,5.6518656E8,1.5622656E7,1.3878938E8,9.424896E7,7.181178E7,1.0164552E9,2.9211853E8,1.6052224E8,2.2476851E8,7.584128E6,0E0,4.7614464E7,3.526944E7,1.6071168E7,2.3368064E7,6.097824E7,4.45616E6,2.5746944E8,3.8642688E8,2.0630324E7,6.994355E7,1.457838E8,2.87552E7,1.6359987E8,3.976672E7,0E0,4.695168E6,8.731328E6,3.58976E7,3.2659968E7,3.4269936E7,0E0,1.0573312E7,6.695808E6,7.680232E6,3.644179E7,1.9008E6,2.895372E6,4.83173E6,1.501952E7,1.1491226E8,2.6594714E8,2.4906035E8,1.6548768E7,0E0,3.6554496E7,3.632973E7,4.0262656E7,6.944307E7,4.176832E6,8.502688E6,1.0857933E8,5.977728E6,1.691614E7,2.7190448E7,0E0,0E0,0E0,0E0,0E0,0E0,0E0,0E0,0E0,0E0,0E0,0E0,0E0,0E0,0E0,0E0,0E0,0E0,0E0,0E0,0E0,0E0,0E0,0E0,0E0,0E0,0E0,0E0,0E0,0E0,0E0,0E0,0E0,0E0,0E0,0E0,0E0,0E0,0E0,0E0,0E0,0E0,0E0,0E0,0E0,0E0,0E0,0E0,0E0,0E0,0E0,0E0,0E0,0E0],"parents":[2147483647,0,0,1,1,2,2,3,3,4,4,5,5,6,6,7,7,8,8,9,9,10,10,11,11,12,12,13,13,14,14,15,15,17,17,18,18,19,19,20,20,21,21,22,22,23,23,24,24,25,25,26,26,27,27,28,28,29,29,30,30,32,32,33,33,34,34,35,35,36,36,38,38,39,39,40,40,41,41,42,42,43,43,44,44,45,45,46,46,47,47,48,48,49,49,51,51,52,52,53,53,54,54,55,55,56,56,57,57,58,58,59,59,60,60],"right_children":[2,4,6,8,10,12,14,16,18,20,22,24,26,28,30,32,-1,34,36,38,40,42,44,46,48,50,52,54,56,58,60,-1,62,64,66,68,70,-1,72,74,76,78,80,82,84,86,88,90,92,94,-1,96,98,100,102,104,106,108,110,112,114,-1,-1,-1,-1,-1,-1,-1,-1,-1,-1,-1,-1,-1,-1,-1,-1,-1,-1,-1,-1,-1,-1,-1,-1,-1,-1,-1,-1,-1,-1,-1,-1,-1,-1,-1,-1,-1,-1,-1,-1,-1,-1,-1,-1,-1,-1,-1,-1,-1,-1,-1,-1,-1,-1],"split_conditions":[1.35E2,NaN,NaN,NaN,1.1E0,2.9E4,1.0113E4,9.85E4,4.5112E4,1.9298E4,4.0687E4,NaN,2.013E3,NaN,3.6638E4,1.1855E4,-4.3251125E1,1.3898E4,7.3626E4,NaN,4.4E4,7.85E1,1.5E0,3.1E1,1.7E0,2.5E0,NaN,5.23E1,4.79E1,NaN,4.79E1,1.1436957E3,1.2042E4,1.7E0,1.7E0,NaN,NaN,7.293493E2,1.2901E4,5.65E1,7.6298E4,NaN,8.31E1,2.015E3,6.1747E4,1.5E2,NaN,1E4,2.2E0,2.008E3,7.423197E2,5.5535E4,4.7904E4,NaN,2.02E3,2.017E3,2.813E3,5.23E1,1.4914E4,1.4E0,4.87E1,5.2014553E1,7.600304E2,6.3348505E2,8.923166E2,4.7805637E2,5.967142E2,5.953942E2,3.6521338E2,7.970379E2,1.8786566E2,6.040704E2,4.8184464E2,2.0681386E2,4.104407E2,2.8552505E2,-7.864705E1,2.5165656E2,2.9141905E1,4.975246E2,3.3109412E2,8.531935E1,5.1693892E0,1.8898096E2,5.5707134E1,2.2089534E3,1.4277297E3,1.4696912E3,1.1154323E3,9.28304E2,7.218167E2,9.9113214E2,1.6607346E3,-1.7797085E1,2.2201256E2,8.8238495E2,4.3437054E2,6.387899E2,4.7142923E2,9.370474E2,5.432321E2,6.761598E2,9.944701E2,3.8153842E2,6.849702E2,5.463138E2,3.747763E2,7.2216626E2,5.3087024E2,3.6571573E2,2.6681195E2,-8.196609E1,1.830734E2,5.2603595E2,2.692672E2],"split_indices":[5,0,0,0,7,3,3,3,3,3,3,0,1,0,3,3,0,3,3,2,3,6,7,6,7,7,0,6,6,0,6,0,3,7,7,0,2,0,3,6,3,0,6,1,3,5,2,3,7,1,0,3,3,0,1,1,3,6,3,7,6,0,0,0,0,0,0,0,0,0,0,0,0,0,0,0,0,0,0,0,0,0,0,0,0,0,0,0,0,0,0,0,0,0,0,0,0,0,0,0,0,0,0,0,0,0,0,0,0,0,0,0,0,0,0],"split_type":[0,1,1,1,0,0,0,0,0,0,0,1,0,1,0,0,0,0,0,1,0,0,0,0,0,0,1,0,0,1,0,0,0,0,0,1,1,0,0,0,0,1,0,0,0,0,1,0,0,0,0,0,0,1,0,0,0,0,0,0,0,0,0,0,0,0,0,0,0,0,0,0,0,0,0,0,0,0,0,0,0,0,0,0,0,0,0,0,0,0,0,0,0,0,0,0,0,0,0,0,0,0,0,0,0,0,0,0,0,0,0,0,0,0,0],"sum_hessian":[1.4372E4,4.792E3,9.58E3,2.45E3,2.342E3,4.934E3,4.646E3,1.9E2,2.26E3,1.262E3,1.08E3,3.924E3,1.01E3,1.771E3,2.875E3,1.88E2,2E0,1.632E3,6.28E2,3.92E2,8.7E2,7.63E2,3.17E2,4.28E2,3.496E3,1.55E2,8.55E2,1.526E3,2.45E2,2.568E3,3.07E2,8E0,1.8E2,2.2E2,1.412E3,4.83E2,1.45E2,5.2E1,3.4E2,7.14E2,1.56E2,6.6E2,1.03E2,2.1E2,1.07E2,4.6E1,3.82E2,2.364E3,1.132E3,1.5E2,5E0,1.61E2,6.94E2,4.14E2,1.112E3,7.2E1,1.73E2,2.301E3,2.67E2,1.16E2,1.91E2,1E0,1.79E2,2.01E2,1.9E1,1.093E3,3.19E2,6.7E1,4.16E2,8E0,1.37E2,1.39E2,2.01E2,1.8E1,6.96E2,1.51E2,5E0,5.85E2,7.5E1,8.7E1,1.6E1,1.55E2,5.5E1,6.7E1,4E1,3.5E1,1.1E1,1.77E2,2.05E2,9.95E2,1.369E3,1.078E3,5.4E1,3.3E1,1.17E2,1.39E2,2.2E1,5.23E2,1.71E2,3.84E2,3E1,1.042E3,7E1,9E0,6.3E1,4.1E1,1.32E2,3.19E2,1.982E3,1.07E2,1.6E2,2.8E1,8.8E1,5.3E1,1.38E2],"tree_param":{"num_deleted":"0","num_feature":"8","num_nodes":"115","size_leaf_vector":"0"}},{"base_weights":[1.4593638E3,1.8089934E3,1.0922788E3,1.5293827E3,2.3447695E3,9.217084E2,1.6384109E3,1.6783492E3,9.334757E2,3.5762312E3,2.209496E3,1.643923E3,8.6282196E2,1.3147295E3,1.9854468E3,2.1964065E3,1.5394252E3,1.3353722E3,8.524402E2,4.44515E3,2.9178098E3,1.8117599E3,2.4554077E3,1.7677948E3,5.686256E2,9.722603E2,5.288798E2,8.53523E2,1.5015739E3,6.1073403E3,1.9571677E3,2.6206433E3,2.0450692E3,1.6868853E3,1.2658635E3,1.83302E3,1.2259509E3,9.341024E2,6.510622E2,4.156287E3,1.8509086E3,2.3538364E3,3.303937E3,1.9374928E3,1.3134575E3,3.1656123E3,2.2650874E3,2.263588E3,1.6226335E3,9.096579E2,-6.3719963E1,1.00816846E3,4.7563882E2,6.1982745E2,1.9128796E2,1.685453E3,7.1157367E2,1.8712323E3,1.2466786E3,4.3298148E2,8.735629E3,2.4242144E3,1.778863E3,8.875062E2,6.8324396E2,5.6095166E2,7.099799E2,6.58313E2,4.9413672E2,3.976948E2,1.3555264E2,7.95063E1,5.649404E2,4.1782053E2,3.1535513E2,3.087626E2,2.498013E2,1.2111971E1,2.2080367E2,1.3588795E3,9.528703E2,5.9189484E2,1.0246936E3,-3.748506E2,1.01241144E3,4.4203134E2,6.197314E2,4.0512064E2,-1.9213918E2,1.1575205E3,7.3965784E2,7.249107E2,4.5875632E2,7.1262134E2,4.3239896E2,5.212741E2,2.8300055E2,3.8892447E2,1.9746748E2,1.529144E2,-1.1121293E2,2.7332883E2,3.3872266E2,1.8074435E2,2.749319E1,2.0343849E2,4.8469936E1,8.624727E1,-7.93818E1,2.1873482E2,7.2422003E2,2.8916025E2,1.09445335E2,5.8881146E2,-2.3583415E2,4.8181015E2,2.9019858E2,3.2548728E3,6.7616046E2,3.806528E2,7.914761E2,5.574283E2,1.3415768E2],"categories":[0,1,2,4,5,6,7,9,10,11,12,13,14,16,17,19,20,22,23,0,1,2,3,4,5,6,7,9,11,12,15,16,17,19,21,22,23,0,1,2,3,4,6,7,8,9,10,11,12,13,14,15,16,17,18,19,20,21,22,23,0,1,2,3,4,7,8,11,12,15,16,17,18,19,21,22,23,1,1,0,3,4,7,8,10,11,12,13,14,15,16,17,18,19,20,21,22,23,0,1,2,4,5,7,9,10,11,12,13,14,16,17,19,20,22,23,1,0,1,2,3,4,6,7,8,9,10,11,12,13,14,15,17,18,19,20,21,22,23,0,1,2,3,4,6,7,8,9,10,11,12,13,14,15,16,17,18,19,20,21,22,23,1,2,0,1,2,3,4,5,6,7,8,10,11,12,15,16,17,18,19,20,21,22,23,0,1,2,3,4,5,6,7,8,9,11,12,14,15,16,17,19,21,22,23,10,14,1,2,3,4,5,6,7,8,9,10,11,13,14,15,16,17,18,19,20,21,22,23,0,3,4,7,8,10,11,12,13,14,15,16,17,18,19,20,21,22,23,0,1,2,3,4,5,6,7,9,10,11,12,14,15,16,17,18,19,20,21,22,23,0,1,2,4,5,7,9,10,11,12,14,15,16,17,19,20,22,23],"categories_nodes":[4,5,18,21,22,23,25,28,30,31,34,39,41,45,49,50,52,53,56,62],"categories_segments":[0,19,37,60,77,78,79,98,116,117,139,162,163,164,185,205,207,229,248,270],"categories_sizes":[19,18,23,17,1,1,19,18,1,22,23,1,1,21,20,2,22,19,22,18],"default_left":[0,0,0,0,1,1,0,0,0,0,0,0,0,0,0,0,0,0,1,0,0,1,1,1,0,1,0,0,1,0,1,1,0,0,1,0,0,0,0,1,0,1,0,0,0,1,0,0,0,1,1,0,1,1,0,0,1,0,0,0,0,0,1,0,0,0,0,0,0,0,0,0,0,0,0,0,0,0,0,0,0,0,0,0,0,0,0,0,0,0,0,0,0,0,0,0,0,0,0,0,0,0,0,0,0,0,0,0,0,0,0,0,0,0,0,0,0,0,0,0,0,0,0],"id":6,"left_children":[1,3,5,7,9,11,13,15,17,19,21,23,25,27,29,31,33,35,37,39,41,43,45,47,49,51,53,55,57,59,61,63,65,67,69,71,73,75,77,79,-1,81,83,85,87,89,91,93,95,97,99,101,103,105,107,109,111,113,115,-1,117,119,121,-1,-1,-1,-1,-1,-1,-1,-1,-1,-1,-1,-1,-1,-1,-1,-1,-1,-1,-1,-1,-1,-1,-1,-1,-1,-1,-1,-1,-1,-1,-1,-1,-1,-1,-1,-1,-1,-1,-1,-1,-1,-1,-1,-1,-1,-1,-1,-1,-1,-1,-1,-1,-1,-1,-1,-1,-1,-1,-1,-1],"loss_changes":[1.8427105E9,1.099006E9,6.518728E8,4.2799206E8,4.122235E8,2.2598195E8,1.8475469E8,2.751447E8,3.0452544E7,1.2891418E8,2.180649E8,5.25408E7,1.8024269E8,7.33449E7,8.164685E7,4.703027E7,1.2110131E8,6.519776E6,1.271232E7,2.6663424E7,2.3581312E7,5.2151296E7,1.824681E8,2.2236288E7,9.330925E6,6.592947E7,3.7431424E7,2.8559824E7,5.5614976E7,4.868472E7,6.2225664E7,1.7715072E7,2.9718272E7,3.638067E7,5.1669376E7,1.622584E6,2.471008E6,4.680224E6,1.2265376E7,1.9638272E7,0E0,1.8333408E7,3.0962304E7,3.8328576E7,1.3786272E7,1.3308083E8,1.1987866E8,3.839648E6,2.0380352E7,1.869484E6,3.0055732E6,3.972147E7,1.2267604E7,2.5618912E7,1.1523096E7,2.332468E7,1.8632464E7,6.2068416E7,3.5288064E7,0E0,1.6652768E7,5.056269E7,6.0576E7,0E0,0E0,0E0,0E0,0E0,0E0,0E0,0E0,0E0,0E0,0E0,0E0,0E0,0E0,0E0,0E0,0E0,0E0,0E0,0E0,0E0,0E0,0E0,0E0,0E0,0E0,0E0,0E0,0E0,0E0,0E0,0E0,0E0,0E0,0E0,0E0,0E0,0E0,0E0,0E0,0E0,0E0,0E0,0E0,0E0,0E0,0E0,0E0,0E0,0E0,0E0,0E0,0E0,0E0,0E0,0E0,0E0,0E0,0E0,0E0],"parents":[2147483647,0,0,1,1,2,2,3,3,4,4,5,5,6,6,7,7,8,8,9,9,10,10,11,11,12,12,13,13,14,14,15,15,16,16,17,17,18,18,19,19,20,20,21,21,22,22,23,23,24,24,25,25,26,26,27,27,28,28,29,29,30,30,31,31,32,32,33,33,34,34,35,35,36,36,37,37,38,38,39,39,41,41,42,42,43,43,44,44,45,45,46,46,47,47,48,48,49,49,50,50,51,51,52,52,53,53,54,54,55,55,56,56,57,57,58,58,60,60,61,61,62,62],"right_children":[2,4,6,8,10,12,14,16,18,20,22,24,26,28,30,32,34,36,38,40,42,44,46,48,50,52,54,56,58,60,62,64,66,68,70,72,74,76,78,80,-1,82,84,86,88,90,92,94,96,98,100,102,104,106,108,110,112,114,116,-1,118,120,122,-1,-1,-1,-1,-1,-1,-1,-1,-1,-1,-1,-1,-1,-1,-1,-1,-1,-1,-1,-1,-1,-1,-1,-1,-1,-1,-1,-1,-1,-1,-1,-1,-1,-1,-1,-1,-1,-1,-1,-1,-1,-1,-1,-1,-1,-1,-1,-1,-1,-1,-1,-1,-1,-1,-1,-1,-1,-1,-1,-1],"split_conditions":[1.8801E4,1.5E0,2E0,1.1E0,NaN,NaN,2.017E3,5.014E3,4.87E1,4.41E1,2.018E3,6.5E4,4.254E4,2.015E3,2.26E1,5.14E1,6.14E1,9.15E2,NaN,2.02E3,2.018E3,NaN,NaN,NaN,9.85E4,NaN,7.0629E4,3.98E1,NaN,2.0966E4,NaN,NaN,6.01E1,4.96E1,NaN,2.019E3,4.79E1,1.0871E4,2.017E3,NaN,1.8509086E3,NaN,4.56E1,1.1E2,1.7E0,NaN,6.89E1,4.4E4,1.55E2,NaN,NaN,1.45E2,NaN,NaN,9.85E4,2.012E3,NaN,6.89E1,6.01E1,4.3298148E2,2.018E3,4.63E1,NaN,8.875062E2,6.8324396E2,5.6095166E2,7.099799E2,6.58313E2,4.9413672E2,3.976948E2,1.3555264E2,7.95063E1,5.649404E2,4.1782053E2,3.1535513E2,3.087626E2,2.498013E2,1.2111971E1,2.2080367E2,1.3588795E3,9.528703E2,5.9189484E2,1.0246936E3,-3.748506E2,1.01241144E3,4.4203134E2,6.197314E2,4.0512064E2,-1.9213918E2,1.1575205E3,7.3965784E2,7.249107E2,4.5875632E2,7.1262134E2,4.3239896E2,5.212741E2,2.8300055E2,3.8892447E2,1.9746748E2,1.529144E2,-1.1121293E2,2.7332883E2,3.3872266E2,1.8074435E2,2.749319E1,2.0343849E2,4.8469936E1,8.624727E1,-7.93818E1,2.1873482E2,7.2422003E2,2.8916025E2,1.09445335E2,5.8881146E2,-2.3583415E2,4.8181015E2,2.9019858E2,3.2548728E3,6.7616046E2,3.806528E2,7.914761E2,5.574283E2,1.3415768E2],"split_indices":[3,7,7,7,0,0,1,3,6,6,1,3,3,1,6,6,6,3,0,1,1,0,2,2,3,0,3,6,0,3,2,0,6,6,0,1,6,3,1,2,0,2,6,5,7,0,6,3,5,0,0,5,0,0,3,1,0,6,6,0,1,6,0,0,0,0,0,0,0,0,0,0,0,0,0,0,0,0,0,0,0,0,0,0,0,0,0,0,0,0,0,0,0,0,0,0,0,0,0,0,0,0,0,0,0,0,0,0,0,0,0,0,0,0,0,0,0,0,0,0,0,0,0],"split_type":[0,0,0,0,1,1,0,0,0,0,0,0,0,0,0,0,0,0,1,0,0,1,1,1,0,1,0,0,1,0,1,1,0,0,1,0,0,0,0,1,0,1,0,0,0,1,0,0,0,1,1,0,1,1,0,0,1,0,0,0,0,0,1,0,0,0,0,0,0,0,0,0,0,0,0,0,0,0,0,0,0,0,0,0,0,0,0,0,0,0,0,0,0,0,0,0,0,0,0,0,0,0,0,0,0,0,0,0,0,0,0,0,0,0,0,0,0,0,0,0,0,0,0],"sum_hessian":[1.4372E4,7.359E3,7.013E3,4.838E3,2.521E3,5.346E3,1.667E3,3.869E3,9.69E2,2.47E2,2.274E3,4.01E2,4.945E3,8.65E2,8.02E2,8.15E2,3.054E3,1.6E2,8.09E2,1.04E2,1.43E2,8.72E2,1.402E3,3.59E2,4.2E1,3.723E3,1.222E3,2.51E2,6.14E2,4E0,7.98E2,2.1E2,6.05E2,1.981E3,1.073E3,2.6E1,1.34E2,5.73E2,2.36E2,9.2E1,1.2E1,6.1E1,8.2E1,6.94E2,1.78E2,2.93E2,1.109E3,7.8E1,2.81E2,2.7E1,1.5E1,3.471E3,2.52E2,9.62E2,2.6E2,3.5E1,2.16E2,2.48E2,3.66E2,2E0,2E0,2.17E2,5.81E2,1.02E2,1.08E2,3.96E2,2.09E2,1.4E2,1.841E3,9.99E2,7.4E1,1E0,2.5E1,6.5E1,6.9E1,2.91E2,2.82E2,2.9E1,2.07E2,6.4E1,2.8E1,4.7E1,1.4E1,1E0,8.1E1,1.53E2,5.41E2,1.75E2,3E0,1.45E2,1.48E2,9.18E2,1.91E2,6.7E1,1.1E1,2.39E2,4.2E1,9E0,1.8E1,5E0,1E1,1.93E3,1.541E3,1.89E2,6.3E1,8.53E2,1.09E2,2.15E2,4.5E1,1.6E1,1.9E1,1.24E2,9.2E1,2.4E2,8E0,1.58E2,2.08E2,1E0,1E0,3.5E1,1.82E2,5.48E2,3.3E1],"tree_param":{"num_deleted":"0","num_feature":"8","num_nodes":"123","size_leaf_vector":"0"}},{"base_weights":[1.02362933E3,1.3576368E3,8.201945E2,1.2316086E3,2.0944534E3,1.019212E3,5.863068E2,1.1957292E3,2.1581458E3,3.1373066E3,1.8542773E3,4.7097635E2,1.0960505E3,7.47288E2,4.0708255E2,1.3759641E3,1.0412056E3,4.7689287E3,2.067598E3,4.1496206E3,2.9259424E3,5.275081E2,1.9815626E3,8.749045E2,3.528003E2,1.5559951E3,1.00429834E3,1.3968561E3,7.104843E2,2.275368E2,6.546127E2,1.312287E3,1.7904257E3,2.1813574E3,1.0097249E3,2.5138887E2,1.6626539E3,2.209134E3,1.246645E3,6.647841E2,1.509955E3,2.3930083E3,3.5607131E3,8.650684E2,3.918712E2,2.2904585E3,1.3813994E3,3.3514545E2,1.0929619E3,2.0013006E1,4.2670007E2,1.7628008E3,1.049498E3,9.908935E2,3.5654277E3,1.6571002E3,1.1476619E3,5.952972E2,7.826785E2,4.3870486E2,6.691854E1,9.5997876E2,4.7776828E2,6.6519495E2,3.8470615E2,5.1071387E2,8.0088153E2,6.997395E2,9.95722E1,3.4179547E2,2.3597775E2,6.728678E2,2.5067159E2,5.3073865E2,1.905346E2,6.5433905E2,1.205577E3,1.2477809E3,7.421461E2,3.5604608E2,8.182227E1,9.276373E2,6.1965845E2,3.792981E2,1.729381E3,1.3221619E2,-6.7657875E1,2.980906E2,9.3127045E2,-2.5411876E2,4.4075172E1,3.88363E2,1.0607218E2,6.639595E2,4.6907953E2,2.7203024E2,4.912283E2,2.7624042E2,3.702569E2,7.76738E2,1.3386492E3,6.224702E2,3.840561E2,2.3775407E2,3.7618896E2,1.8289536E2,1.9166954E1,2.4027165E2,1.2553538E2,7.663677E1,1.5745555E2,1.7297825E1,2.1382977E2,4.884448E1,4.371964E2,1.892437E2,4.600492E1],"categories":[0,1,4,5,7,11,12,16,19,22,23,0,1,3,4,5,7,8,11,12,15,17,19,21,22,23,0,1,2,3,4,5,6,7,8,9,10,11,12,14,15,16,18,19,20,21,22,23,1,1,0,0,1,2,3,4,7,8,9,11,12,13,14,15,17,18,19,21,22,23,0,1,4,5,6,7,9,10,11,12,16,17,19,20,21,22,23,0,1,2,3,4,5,6,7,8,9,11,12,13,15,17,19,21,22,23,0,1,2,3,4,6,7,8,9,10,11,12,13,14,15,16,17,18,19,20,21,22,23,2,2,0,1,2,3,4,5,6,7,8,9,10,11,12,13,15,16,17,18,19,20,21,22,23,0,1],"categories_nodes":[2,7,11,12,13,15,18,25,31,33,37,42,44,60,61],"categories_segments":[0,11,26,48,49,50,51,70,87,106,129,130,131,154,155],"categories_sizes":[11,15,22,1,1,1,19,17,19,23,1,1,23,1,1],"default_left":[0,0,1,0,0,0,0,1,0,0,0,1,1,1,0,1,0,0,1,0,0,0,0,0,0,1,0,0,0,0,0,1,0,1,0,0,0,1,0,0,0,0,1,0,1,0,0,0,0,0,0,0,0,0,0,0,0,0,0,0,1,1,0,0,0,0,0,0,0,0,0,0,0,0,0,0,0,0,0,0,0,0,0,0,0,0,0,0,0,0,0,0,0,0,0,0,0,0,0,0,0,0,0,0,0,0,0,0,0,0,0,0,0,0,0,0,0],"id":7,"left_children":[1,3,5,7,9,11,13,15,17,19,21,23,25,27,29,31,33,35,37,39,41,43,45,47,49,51,53,55,57,59,61,63,65,67,69,-1,-1,71,73,-1,-1,75,77,-1,79,81,83,85,87,89,91,93,95,97,99,101,103,105,107,109,111,113,115,-1,-1,-1,-1,-1,-1,-1,-1,-1,-1,-1,-1,-1,-1,-1,-1,-1,-1,-1,-1,-1,-1,-1,-1,-1,-1,-1,-1,-1,-1,-1,-1,-1,-1,-1,-1,-1,-1,-1,-1,-1,-1,-1,-1,-1,-1,-1,-1,-1,-1,-1,-1,-1,-1],"loss_changes":[9.755136E8,5.0248397E8,4.1530624E8,1.519022E8,1.9280384E8,2.027822E8,1.1827635E8,1.2322611E8,3.0800768E7,1.9311744E7,1.0821888E8,2.8093432E7,1.770322E8,5.0741376E7,8.638157E7,5.209677E7,8.444237E7,1.055396E7,1.676672E7,2.814272E7,3.376557E7,1.7404946E7,1.0621466E8,1.5405296E7,1.1353388E7,7.168192E7,1.1769165E8,5.556112E6,1.6581568E7,3.8297356E7,4.37152E7,4.5702656E7,1.65104E7,1.7111616E7,6.708659E7,0E0,0E0,4.710336E6,7.503284E6,0E0,0E0,1.568912E7,2.5491968E7,0E0,4.979646E6,6.357696E7,9.68816E7,2.4671145E6,1.589396E7,9.477471E6,2.3530936E7,4.113037E7,1.580184E7,5.878861E7,4.205616E6,5.84736E6,1.34688E6,6.017536E6,8.009792E6,7.569656E6,3.8040302E6,1.1830528E8,2.5721432E7,0E0,0E0,0E0,0E0,0E0,0E0,0E0,0E0,0E0,0E0,0E0,0E0,0E0,0E0,0E0,0E0,0E0,0E0,0E0,0E0,0E0,0E0,0E0,0E0,0E0,0E0,0E0,0E0,0E0,0E0,0E0,0E0,0E0,0E0,0E0,0E0,0E0,0E0,0E0,0E0,0E0,0E0,0E0,0E0,0E0,0E0,0E0,0E0,0E0,0E0,0E0,0E0,0E0,0E0],"parents":[2147483647,0,0,1,1,2,2,3,3,4,4,5,5,6,6,7,7,8,8,9,9,10,10,11,11,12,12,13,13,14,14,15,15,16,16,17,17,18,18,19,19,20,20,21,21,22,22,23,23,24,24,25,25,26,26,27,27,28,28,29,29,30,30,31,31,32,32,33,33,34,34,37,37,38,38,41,41,42,42,44,44,45,45,46,46,47,47,48,48,49,49,50,50,51,51,52,52,53,53,54,54,55,55,56,56,57,57,58,58,59,59,60,60,61,61,62,62],"right_children":[2,4,6,8,10,12,14,16,18,20,22,24,26,28,30,32,34,36,38,40,42,44,46,48,50,52,54,56,58,60,62,64,66,68,70,-1,-1,72,74,-1,-1,76,78,-1,80,82,84,86,88,90,92,94,96,98,100,102,104,106,108,110,112,114,116,-1,-1,-1,-1,-1,-1,-1,-1,-1,-1,-1,-1,-1,-1,-1,-1,-1,-1,-1,-1,-1,-1,-1,-1,-1,-1,-1,-1,-1,-1,-1,-1,-1,-1,-1,-1,-1,-1,-1,-1,-1,-1,-1,-1,-1,-1,-1,-1,-1,-1,-1,-1,-1,-1],"split_conditions":[1.4E4,2E0,NaN,2.02E3,3.82E1,2.015E3,1.1E0,NaN,4.04E1,2.63E1,3.87E1,NaN,NaN,NaN,1.5E0,NaN,4.09E1,1.44E3,NaN,2.019E3,3.71E1,1E2,5.65E1,1.5E2,2.01E3,NaN,2.2E0,5.54E1,2E1,2.5243E4,4.87E1,NaN,6.89E1,NaN,1.1E0,2.5138887E2,1.6626539E3,NaN,6.23E2,6.647841E2,1.509955E3,9.928E3,NaN,8.650684E2,NaN,5.014E3,7.43E1,6.9E4,5.42E1,5.47E4,3.98E1,2.2015E4,6.57E1,2.018E3,2.1127E4,2.3693E4,1.8E4,6.5E4,2.019E3,2.017E3,NaN,NaN,4.1E4,6.6519495E2,3.8470615E2,5.1071387E2,8.0088153E2,6.997395E2,9.95722E1,3.4179547E2,2.3597775E2,6.728678E2,2.5067159E2,5.3073865E2,1.905346E2,6.5433905E2,1.205577E3,1.2477809E3,7.421461E2,3.5604608E2,8.182227E1,9.276373E2,6.1965845E2,3.792981E2,1.729381E3,1.3221619E2,-6.7657875E1,2.980906E2,9.3127045E2,-2.5411876E2,4.4075172E1,3.88363E2,1.0607218E2,6.639595E2,4.6907953E2,2.7203024E2,4.912283E2,2.7624042E2,3.702569E2,7.76738E2,1.3386492E3,6.224702E2,3.840561E2,2.3775407E2,3.7618896E2,1.8289536E2,1.9166954E1,2.4027165E2,1.2553538E2,7.663677E1,1.5745555E2,1.7297825E1,2.1382977E2,4.884448E1,4.371964E2,1.892437E2,4.600492E1],"split_indices":[3,7,0,1,6,1,7,0,6,6,6,0,2,2,7,2,6,3,0,1,6,3,6,5,1,0,7,6,5,3,6,0,6,0,7,0,0,2,3,0,0,3,2,0,0,3,6,3,6,3,6,3,6,1,3,3,3,3,1,1,2,2,3,0,0,0,0,0,0,0,0,0,0,0,0,0,0,0,0,0,0,0,0,0,0,0,0,0,0,0,0,0,0,0,0,0,0,0,0,0,0,0,0,0,0,0,0,0,0,0,0,0,0,0,0,0,0],"split_type":[0,0,1,0,0,0,0,1,0,0,0,1,1,1,0,1,0,0,1,0,0,0,0,0,0,1,0,0,0,0,0,1,0,1,0,0,0,1,0,0,0,0,1,0,1,0,0,0,0,0,0,0,0,0,0,0,0,0,0,0,1,1,0,0,0,0,0,0,0,0,0,0,0,0,0,0,0,0,0,0,0,0,0,0,0,0,0,0,0,0,0,0,0,0,0,0,0,0,0,0,0,0,0,0,0,0,0,0,0,0,0,0,0,0,0,0,0],"sum_hessian":[1.4372E4,5.438E3,8.934E3,4.646E3,7.92E2,4.825E3,4.109E3,4.475E3,1.71E2,1.46E2,6.46E2,5.94E2,4.231E3,2.163E3,1.946E3,2.062E3,2.413E3,4E0,1.67E2,2.2E1,1.24E2,5.7E1,5.89E2,1.33E2,4.61E2,7.01E2,3.53E3,1.14E2,2.049E3,1.129E3,8.17E2,1.791E3,2.71E2,6.3E1,2.35E3,1E0,3E0,1.41E2,2.6E1,8E0,1.4E1,7E1,5.4E1,2E0,5.5E1,3.87E2,2.02E2,3.9E1,9.4E1,8.4E1,3.77E2,4.96E2,2.05E2,3.513E3,1.7E1,5.3E1,6.1E1,7.93E2,1.256E3,4.87E2,6.42E2,2.98E2,5.19E2,5.5E1,1.736E3,2.49E2,2.2E1,5.8E1,5E0,1.484E3,8.66E2,1.37E2,4E0,1.3E1,1.3E1,6.4E1,6E0,3.3E1,2.1E1,6E0,4.9E1,8.2E1,3.05E2,1.98E2,4E0,3.3E1,6E0,9.1E1,3E0,1E1,7.4E1,2.8E1,3.49E2,1.49E2,3.47E2,1.67E2,3.8E1,2.731E3,7.82E2,1E1,7E0,2.3E1,3E1,1.6E1,4.5E1,7.72E2,2.1E1,1.195E3,6.1E1,1.57E2,3.3E2,6.34E2,8E0,1.15E2,1.83E2,3.52E2,1.67E2],"tree_param":{"num_deleted":"0","num_feature":"8","num_nodes":"117","size_leaf_vector":"0"}},{"base_weights":[7.1848114E2,8.7637524E2,4.877603E2,7.210889E2,1.1620419E3,3.9585974E2,7.66618E2,9.033311E2,5.967346E2,1.1256069E3,2.8444717E3,7.770481E2,3.5550397E2,1.093072E3,6.123897E2,9.9080646E2,5.420068E2,6.61526E2,3.3852728E2,1.7857544E3,1.0571157E3,1.3742397E3,2.4304326E3,1.0298225E3,5.904985E2,4.0103375E2,1.5744582E2,1.1632742E3,-1.4264868E3,3.95153E2,7.0559344E2,1.0456097E3,6.1704333E2,9.6447656E2,4.815006E2,7.381886E2,5.1367786E2,3.6757916E2,-2.0888902E2,2.2868953E3,1.4326232E3,1.1902242E3,8.87341E2,3.3989734E3,1.68861E3,1.6418832E3,8.987979E2,6.5051807E2,-1.1424696E2,3.094578E2,4.85189E2,1.8473743E2,-2.6128403E2,1.01746466E3,4.902184E2,2.318048E2,-1.6741411E3,8.257908E2,2.5682233E2,1.0782848E3,5.407275E2,4.1472287E2,2.9897855E2,7.1248436E1,1.9664746E2,4.533602E2,2.4646486E2,2.2143643E2,1.3233487E2,2.1090707E2,3.319085E2,1.515617E2,8.6438617E2,1.14597466E2,-1.0341919E2,-1.25213326E2,1.5626146E2,6.5506433E2,1.5942035E3,3.6701816E2,9.1852203E2,4.2532697E2,2.7689627E2,3.903494E2,2.2859544E2,1.1581884E3,3.1716702E2,3.4791354E2,5.6289124E2,2.5650998E2,5.667436E2,-3.2375098E2,2.7587842E2,1.7682307E2,3.8461032E2,1.1680683E2,-1.447286E2,1.0082058E2,-2.9208738E1,2.0477827E2,1.26260445E2,6.235099E1,-4.445732E1,-3.2766823E1,-2.3933475E2,2.8289096E2,6.7615564E2,-3.353865E2,-6.6876324E2,1.0113699E2,2.9121118E2,2.630922E1,1.3077376E2,4.4912314E2,2.8649866E2,5.380922E2,1.5711812E2],"categories":[0,1,2,3,4,5,6,7,11,12,15,16,17,19,21,22,23,0,1,2,4,5,7,9,10,11,12,13,14,16,18,19,20,22,23,0,1,2,3,4,5,6,7,8,9,10,11,12,14,15,16,17,19,20,21,22,23,11,0,1,2,4,5,7,8,9,10,11,12,13,14,16,17,19,20,21,22,23,0,1,2,4,7,11,12,13,15,16,17,19,21,22,23,0,1,2,3,0,1,2,3,4,5,6,7,9,10,11,12,13,15,16,17,19,20,21,22,23,0,1,2,3,4,5,6,7,8,9,10,11,12,13,14,15,16,17,19,20,21,22,23,1,2,14,0,1,2,3,4,5,7,8,9,10,11,12,13,14,15,16,17,18,19,20,21,22,23,7,11,12,16,19,0,3,4],"categories_nodes":[5,6,10,18,19,20,22,23,29,42,43,48,50,51,60],"categories_segments":[0,17,35,57,58,78,93,97,118,141,142,143,144,167,172],"categories_sizes":[17,18,22,1,20,15,4,21,23,1,1,1,23,5,3],"default_left":[0,0,0,0,0,1,1,0,0,0,1,0,0,0,0,0,0,0,1,1,1,0,1,1,0,0,0,0,0,1,0,0,0,0,0,0,0,0,0,0,0,0,1,1,0,0,0,0,1,0,1,1,0,0,0,0,0,0,0,0,1,0,0,0,0,0,0,0,0,0,0,0,0,0,0,0,0,0,0,0,0,0,0,0,0,0,0,0,0,0,0,0,0,0,0,0,0,0,0,0,0,0,0,0,0,0,0,0,0,0,0,0,0,0,0,0,0],"id":8,"left_children":[1,3,5,7,9,11,13,15,17,19,21,23,25,27,29,31,33,35,37,39,41,-1,43,45,47,49,51,53,55,57,59,61,63,65,67,69,71,73,75,77,79,81,83,85,87,89,91,93,95,97,99,101,103,105,-1,-1,107,109,111,113,115,-1,-1,-1,-1,-1,-1,-1,-1,-1,-1,-1,-1,-1,-1,-1,-1,-1,-1,-1,-1,-1,-1,-1,-1,-1,-1,-1,-1,-1,-1,-1,-1,-1,-1,-1,-1,-1,-1,-1,-1,-1,-1,-1,-1,-1,-1,-1,-1,-1,-1,-1,-1,-1,-1,-1,-1],"loss_changes":[5.2317338E8,3.77643E8,1.4941056E8,1.2478515E8,1.8087962E8,6.73481E7,7.218477E7,7.029414E7,5.481651E7,1.3108736E8,3.415779E7,1.9196976E7,3.5799616E7,8.355418E7,1.9664704E7,3.6286464E7,1.075732E7,2.9419008E7,1.0604872E7,4.539008E7,5.9213824E7,0E0,3.2340192E7,1.2718784E7,1.039516E7,2.476528E7,8.56199E6,2.9296384E7,8.373818E6,1.7539904E7,4.1690496E7,2.4556672E7,3.24448E6,2.978124E6,3.674712E6,2.1607296E7,1.6617376E7,6.589056E6,5.390393E6,2.3435264E7,5.215523E7,8.941261E7,6.001395E7,1.9702176E7,1.000704E6,4.221456E6,7.080464E6,7.92724E6,3.8961855E6,1.6823536E7,2.108224E7,5.414066E6,3.6655745E6,2.9834944E7,0E0,0E0,1.212508E6,4.771388E6,6.837288E6,9.413136E6,9.26336E6,0E0,0E0,0E0,0E0,0E0,0E0,0E0,0E0,0E0,0E0,0E0,0E0,0E0,0E0,0E0,0E0,0E0,0E0,0E0,0E0,0E0,0E0,0E0,0E0,0E0,0E0,0E0,0E0,0E0,0E0,0E0,0E0,0E0,0E0,0E0,0E0,0E0,0E0,0E0,0E0,0E0,0E0,0E0,0E0,0E0,0E0,0E0,0E0,0E0,0E0,0E0,0E0,0E0,0E0,0E0,0E0],"parents":[2147483647,0,0,1,1,2,2,3,3,4,4,5,5,6,6,7,7,8,8,9,9,10,10,11,11,12,12,13,13,14,14,15,15,16,16,17,17,18,18,19,19,20,20,22,22,23,23,24,24,25,25,26,26,27,27,28,28,29,29,30,30,31,31,32,32,33,33,34,34,35,35,36,36,37,37,38,38,39,39,40,40,41,41,42,42,43,43,44,44,45,45,46,46,47,47,48,48,49,49,50,50,51,51,52,52,53,53,56,56,57,57,58,58,59,59,60,60],"right_children":[2,4,6,8,10,12,14,16,18,20,22,24,26,28,30,32,34,36,38,40,42,-1,44,46,48,50,52,54,56,58,60,62,64,66,68,70,72,74,76,78,80,82,84,86,88,90,92,94,96,98,100,102,104,106,-1,-1,108,110,112,114,116,-1,-1,-1,-1,-1,-1,-1,-1,-1,-1,-1,-1,-1,-1,-1,-1,-1,-1,-1,-1,-1,-1,-1,-1,-1,-1,-1,-1,-1,-1,-1,-1,-1,-1,-1,-1,-1,-1,-1,-1,-1,-1,-1,-1,-1,-1,-1,-1,-1,-1,-1,-1,-1,-1,-1,-1],"split_conditions":[2.2402E4,1.5E0,2E0,9.438E3,2.02E3,NaN,NaN,1.1E0,1.1E0,3.82E1,NaN,3.0884E4,5.1186E4,6.89E1,5.42E1,6.57E1,4.79E1,6.42E1,NaN,NaN,NaN,1.3742397E3,NaN,NaN,9E4,6.28E1,9.85E4,6.57E1,2.016E3,NaN,5.54E1,4.96E1,3.5E3,6.23E2,1.693E3,6.28E1,6.73E1,2.019E3,2.017E3,2.1523E4,3.77E1,5.89E1,NaN,NaN,2.3E1,1.1E2,3.14E1,2.1E2,NaN,6.14E1,NaN,NaN,2.013E3,2.2E0,4.902184E2,2.318048E2,2.017E3,2.015E3,1.6E2,2.016E3,NaN,4.1472287E2,2.9897855E2,7.1248436E1,1.9664746E2,4.533602E2,2.4646486E2,2.2143643E2,1.3233487E2,2.1090707E2,3.319085E2,1.515617E2,8.6438617E2,1.14597466E2,-1.0341919E2,-1.25213326E2,1.5626146E2,6.5506433E2,1.5942035E3,3.6701816E2,9.1852203E2,4.2532697E2,2.7689627E2,3.903494E2,2.2859544E2,1.1581884E3,3.1716702E2,3.4791354E2,5.6289124E2,2.5650998E2,5.667436E2,-3.2375098E2,2.7587842E2,1.7682307E2,3.8461032E2,1.1680683E2,-1.447286E2,1.0082058E2,-2.9208738E1,2.0477827E2,1.26260445E2,6.235099E1,-4.445732E1,-3.2766823E1,-2.3933475E2,2.8289096E2,6.7615564E2,-3.353865E2,-6.6876324E2,1.0113699E2,2.9121118E2,2.630922E1,1.3077376E2,4.4912314E2,2.8649866E2,5.380922E2,1.5711812E2],"split_indices":[3,7,7,3,1,0,0,7,7,6,0,3,3,6,6,6,6,6,0,0,0,0,4,0,3,6,3,6,1,0,6,6,3,3,3,6,6,1,1,3,6,6,2,2,3,5,6,5,0,6,0,0,1,7,0,0,1,1,5,1,4,0,0,0,0,0,0,0,0,0,0,0,0,0,0,0,0,0,0,0,0,0,0,0,0,0,0,0,0,0,0,0,0,0,0,0,0,0,0,0,0,0,0,0,0,0,0,0,0,0,0,0,0,0,0,0,0],"split_type":[0,0,0,0,0,1,1,0,0,0,1,0,0,0,0,0,0,0,1,1,1,0,1,1,0,0,0,0,0,1,0,0,0,0,0,0,0,0,0,0,0,0,1,1,0,0,0,0,1,0,1,1,0,0,0,0,0,0,0,0,1,0,0,0,0,0,0,0,0,0,0,0,0,0,0,0,0,0,0,0,0,0,0,0,0,0,0,0,0,0,0,0,0,0,0,0,0,0,0,0,0,0,0,0,0,0,0,0,0,0,0,0,0,0,0,0,0],"sum_hessian":[1.4372E4,8.531E3,5.841E3,5.529E3,3.002E3,4.395E3,1.446E3,2.24E3,3.289E3,2.94E3,6.2E1,4.19E2,3.976E3,4.62E2,9.84E2,1.802E3,4.38E2,2.628E3,6.61E2,2.74E2,2.666E3,1E1,5.2E1,1.76E2,2.43E2,3.232E3,7.44E2,4.5E2,1.2E1,2.97E2,6.87E2,1.57E3,2.32E2,5.3E1,3.85E2,1.728E3,9E2,6.28E2,3.3E1,1.11E2,1.63E2,1.491E3,1.175E3,2.1E1,3.1E1,2.9E1,1.47E2,2.24E2,1.9E1,1.55E3,1.682E3,6.99E2,4.5E1,3.46E2,1.04E2,1E0,1.1E1,7.1E1,2.26E2,2.09E2,4.78E2,1.96E2,1.374E3,2.2E1,2.1E2,9E0,4.4E1,5E1,3.35E2,1.58E3,1.48E2,8.98E2,2E0,6.16E2,1.2E1,2.6E1,7E0,1.09E2,2E0,1.46E2,1.7E1,8.03E2,6.88E2,2.71E2,9.04E2,1.7E1,4E0,1E1,2.1E1,8E0,2.1E1,1E0,1.46E2,2.06E2,1.8E1,8E0,1.1E1,1.455E3,9.5E1,4.11E2,1.271E3,6.54E2,4.5E1,3.6E1,9E0,3.28E2,1.8E1,7E0,4E0,1.7E1,5.4E1,1.17E2,1.09E2,4.5E1,1.64E2,5E0,4.73E2],"tree_param":{"num_deleted":"0","num_feature":"8","num_nodes":"117","size_leaf_vector":"0"}},{"base_weights":[5.040755E2,3.8429114E2,6.713141E2,5.772407E2,3.2188446E2,9.033922E2,5.0262216E2,5.6252094E2,2.532797E3,3.7017844E2,1.7149725E2,1.5087397E3,8.405577E2,6.6137335E2,3.787112E2,6.006601E2,1.1557069E2,9.1870374E2,3.8302905E3,4.123154E2,1.622133E2,2.1404024E2,-2.255252E1,1.8468741E3,1.1721089E3,8.8922375E2,4.1763898E2,3.0616077E3,6.498542E2,5.363174E1,4.5209576E2,7.7092474E2,5.0752295E2,1.9316846E2,-6.525921E2,5.632172E2,2.86243E2,1.6635201E3,2.0661204E3,3.4550766E2,5.5093E2,3.8353924E1,2.4029723E2,1.4587997E2,3.556573E2,6.1517166E1,-2.109583E2,2.7482588E3,1.6186918E3,1.3142003E3,7.69869E2,8.6467084E2,1.4911683E3,7.2687535E0,5.351652E2,1.0282582E3,1.2991348E2,7.0118787E2,3.1627115E2,1.8118135E2,-2.9538144E2,6.7379224E2,3.0305093E2,-2.240792E1,2.4297202E2,7.435619E1,1.773215E2,1.0932683E-1,1.1500863E2,1.4291544E2,-2.5887778E2,3.017136E2,-1.7637949E1,5.581159E2,1.01878426E2,1.2125819E2,3.5365456E1,1.6068054E2,6.4315704E2,3.1848707E1,-4.8393833E1,1.647703E2,6.2248943E1,3.9405796E1,1.7107918E2,8.636304E1,3.3638245E2,5.539763E1,-3.7917904E1,-4.8670525E1,-2.2129749E2,8.8760406E2,1.2880879E2,-4.5763832E1,5.094674E2,6.0351567E0,4.2259323E2,5.441875E2,1.2959868E2,3.097704E2,2.3481699E2,5.6355835E2,1.8879004E2,5.0389603E1,-2.4446309E2,2.4930933E2,1.3191591E2,2.888597E2,1.9023018E2,4.339128E1,1.79243E2,3.4787778E2,4.504223E1,2.3579884E2,-1.01476555E2,1.3423549E2,3.3205817E2,9.714608E1,-8.61133E1],"categories":[0,1,2,4,5,6,7,11,12,16,19,20,22,23,0,1,2,4,5,6,7,9,10,11,12,13,14,17,19,20,21,22,23,0,1,2,3,4,5,7,11,12,15,16,17,18,19,21,22,23,0,2,3,4,7,8,9,10,11,12,13,14,15,16,17,18,19,21,22,23,0,1,3,4,7,8,9,10,11,12,15,16,17,18,19,20,22,23,0,1,2,4,5,6,7,9,11,12,13,15,16,17,19,20,22,23,1,0,1,2,3,4,5,6,7,9,10,11,12,13,14,15,17,19,20,21,22,23,7,11,12,1,0,0,1,2,3,4,7,8,9,10,11,12,15,16,17,18,19,20,21,22,23,0,11,12,0,1,2,3,4,5,6,7,8,9,10,11,12,13,14,15,16,17,19,20,21,22,23,5,18],"categories_nodes":[1,5,6,9,12,15,18,23,41,42,47,52,53,59,60],"categories_segments":[0,14,33,50,70,88,106,107,128,131,132,133,153,156,179],"categories_sizes":[14,19,17,20,18,18,1,21,3,1,1,20,3,23,2],"default_left":[0,1,0,0,0,1,1,0,0,1,0,0,1,0,0,1,0,0,1,0,0,0,0,1,0,0,0,0,0,0,0,0,0,0,0,0,0,0,0,0,0,1,1,0,0,0,0,1,0,0,0,0,1,1,0,0,0,0,0,1,1,0,0,0,0,0,0,0,0,0,0,0,0,0,0,0,0,0,0,0,0,0,0,0,0,0,0,0,0,0,0,0,0,0,0,0,0,0,0,0,0,0,0,0,0,0,0,0,0,0,0,0,0,0,0,0,0,0,0],"id":9,"left_children":[1,3,5,7,9,11,13,15,17,19,21,23,25,27,29,31,33,35,37,39,41,43,45,47,49,51,53,55,57,59,61,63,65,67,69,-1,71,73,-1,75,77,79,81,83,85,87,89,91,93,95,97,99,101,103,105,-1,-1,107,109,111,113,115,117,-1,-1,-1,-1,-1,-1,-1,-1,-1,-1,-1,-1,-1,-1,-1,-1,-1,-1,-1,-1,-1,-1,-1,-1,-1,-1,-1,-1,-1,-1,-1,-1,-1,-1,-1,-1,-1,-1,-1,-1,-1,-1,-1,-1,-1,-1,-1,-1,-1,-1,-1,-1,-1,-1,-1,-1],"loss_changes":[2.8767E8,1.0068442E8,2.3432678E8,5.747008E7,4.5924544E7,9.46985E7,6.810624E7,3.456864E7,2.7895232E7,4.1925504E7,1.2726488E7,2.4698368E7,4.6719616E7,4.009165E7,4.6589984E7,2.9294912E7,9.722902E6,4.3132645E6,4.1529904E7,3.670355E7,7.814968E6,1.2149072E7,4.416279E6,1.9410304E7,5.903968E6,2.9023488E7,1.1474672E7,5.248628E6,2.573824E7,1.6123971E7,5.246589E7,2.1816576E7,2.6169536E7,5.3903655E6,3.973014E6,0E0,1.5485856E6,9.32042E5,0E0,3.589965E7,3.0446912E7,4.268398E6,4.912188E6,5.19631E6,2.0953724E7,4.489274E6,2.0873028E6,9.464448E6,1.3641888E7,1.0726832E7,1.1210558E7,2.6337792E7,2.5192208E7,7.271135E6,4.858808E6,0E0,0E0,2.2439488E7,9.7595E6,7.87407E6,4.763046E6,6.2238144E7,1.179732E7,0E0,0E0,0E0,0E0,0E0,0E0,0E0,0E0,0E0,0E0,0E0,0E0,0E0,0E0,0E0,0E0,0E0,0E0,0E0,0E0,0E0,0E0,0E0,0E0,0E0,0E0,0E0,0E0,0E0,0E0,0E0,0E0,0E0,0E0,0E0,0E0,0E0,0E0,0E0,0E0,0E0,0E0,0E0,0E0,0E0,0E0,0E0,0E0,0E0,0E0,0E0,0E0,0E0,0E0,0E0,0E0],"parents":[2147483647,0,0,1,1,2,2,3,3,4,4,5,5,6,6,7,7,8,8,9,9,10,10,11,11,12,12,13,13,14,14,15,15,16,16,17,17,18,18,19,19,20,20,21,21,22,22,23,23,24,24,25,25,26,26,27,27,28,28,29,29,30,30,31,31,32,32,33,33,34,34,36,36,37,37,39,39,40,40,41,41,42,42,43,43,44,44,45,45,46,46,47,47,48,48,49,49,50,50,51,51,52,52,53,53,54,54,57,57,58,58,59,59,60,60,61,61,62,62],"right_children":[2,4,6,8,10,12,14,16,18,20,22,24,26,28,30,32,34,36,38,40,42,44,46,48,50,52,54,56,58,60,62,64,66,68,70,-1,72,74,-1,76,78,80,82,84,86,88,90,92,94,96,98,100,102,104,106,-1,-1,108,110,112,114,116,118,-1,-1,-1,-1,-1,-1,-1,-1,-1,-1,-1,-1,-1,-1,-1,-1,-1,-1,-1,-1,-1,-1,-1,-1,-1,-1,-1,-1,-1,-1,-1,-1,-1,-1,-1,-1,-1,-1,-1,-1,-1,-1,-1,-1,-1,-1,-1,-1,-1,-1,-1,-1,-1,-1,-1,-1],"split_conditions":[2.018E3,NaN,5.65E1,3.2E0,3.9371E4,NaN,NaN,7.3626E4,2.0798E4,NaN,7.0629E4,5.04E1,NaN,1.45E2,5.89E1,NaN,2.017E3,2.017E3,NaN,1.5E0,2.017E3,6.73E1,2.014E3,NaN,2.02E3,2.02E3,1.1E0,5.675E3,1.5E2,2.019E3,6.42E1,2.014E3,5.42E1,2.015E3,1.6E0,5.632172E2,2.09E1,5.8E2,2.0661204E3,1.2E0,2.2E0,NaN,NaN,2.3E2,1.7E0,1.6E2,2.017E3,NaN,2.21E1,3.27E2,6.23E2,4.48E1,NaN,NaN,1.693E3,1.0282582E3,1.2991348E2,5.014E3,2.019E3,NaN,NaN,6.01E1,2.019E3,-2.240792E1,2.4297202E2,7.435619E1,1.773215E2,1.0932683E-1,1.1500863E2,1.4291544E2,-2.5887778E2,3.017136E2,-1.7637949E1,5.581159E2,1.01878426E2,1.2125819E2,3.5365456E1,1.6068054E2,6.4315704E2,3.1848707E1,-4.8393833E1,1.647703E2,6.2248943E1,3.9405796E1,1.7107918E2,8.636304E1,3.3638245E2,5.539763E1,-3.7917904E1,-4.8670525E1,-2.2129749E2,8.8760406E2,1.2880879E2,-4.5763832E1,5.094674E2,6.0351567E0,4.2259323E2,5.441875E2,1.2959868E2,3.097704E2,2.3481699E2,5.6355835E2,1.8879004E2,5.0389603E1,-2.4446309E2,2.4930933E2,1.3191591E2,2.888597E2,1.9023018E2,4.339128E1,1.79243E2,3.4787778E2,4.504223E1,2.3579884E2,-1.01476555E2,1.3423549E2,3.3205817E2,9.714608E1,-8.61133E1],"split_indices":[1,0,6,7,3,0,0,3,3,0,3,6,0,5,6,0,1,1,2,7,1,6,1,0,1,1,7,3,5,1,6,1,6,1,7,0,6,5,0,7,7,0,2,5,7,5,1,2,6,3,3,6,0,0,3,0,0,3,1,0,0,6,1,0,0,0,0,0,0,0,0,0,0,0,0,0,0,0,0,0,0,0,0,0,0,0,0,0,0,0,0,0,0,0,0,0,0,0,0,0,0,0,0,0,0,0,0,0,0,0,0,0,0,0,0,0,0,0,0],"split_type":[0,1,0,0,0,1,1,0,0,1,0,0,1,0,0,1,0,0,1,0,0,0,0,1,0,0,0,0,0,0,0,0,0,0,0,0,0,0,0,0,0,1,1,0,0,0,0,1,0,0,0,0,1,1,0,0,0,0,0,1,1,0,0,0,0,0,0,0,0,0,0,0,0,0,0,0,0,0,0,0,0,0,0,0,0,0,0,0,0,0,0,0,0,0,0,0,0,0,0,0,0,0,0,0,0,0,0,0,0,0,0,0,0,0,0,0,0,0,0],"sum_hessian":[1.4372E4,8.376E3,5.996E3,2.045E3,6.331E3,2.522E3,3.474E3,2.031E3,1.4E1,4.791E3,1.54E3,2.35E2,2.287E3,1.521E3,1.953E3,1.871E3,1.6E2,7E0,7E0,3.983E3,8.08E2,1.263E3,2.77E2,1.15E2,1.2E2,2.05E3,2.37E2,6E0,1.515E3,3.6E2,1.593E3,6.59E2,1.212E3,1.46E2,1.4E1,2E0,5E0,5E0,2E0,2.69E3,1.293E3,3.13E2,4.95E2,8.54E2,4.09E2,1.92E2,8.5E1,2.1E1,9.4E1,8.7E1,3.3E1,1.972E3,7.8E1,5.3E1,1.84E2,5E0,1E0,1.312E3,2.03E2,2.64E2,9.6E1,6.39E2,9.54E2,2.9E1,6.3E2,2.96E2,9.16E2,7.3E1,7.3E1,2E0,1.2E1,1E0,4E0,4E0,1E0,2.138E3,5.52E2,1.282E3,1.1E1,2.34E2,7.9E1,4.6E1,4.49E2,8.27E2,2.7E1,3.77E2,3.2E1,1.16E2,7.6E1,7.9E1,6E0,1.9E1,2E0,4E0,9E1,6E0,8.1E1,7E0,2.6E1,6.43E2,1.329E3,5.3E1,2.5E1,4.5E1,8E0,4.3E1,1.41E2,2.65E2,1.047E3,1.27E2,7.6E1,7E0,2.57E2,3E0,9.3E1,4.21E2,2.18E2,9.22E2,3.2E1],"tree_param":{"num_deleted":"0","num_feature":"8","num_nodes":"119","size_leaf_vector":"0"}},{"base_weights":[3.537245E2,2.0449231E2,4.283426E2,5.0048685E2,1.891217E2,4.2107614E2,1.8933893E3,1.475272E3,4.4168018E2,2.7569473E2,1.2976881E2,6.2119025E2,3.804955E2,1.3494663E3,2.6239355E3,4.8767737E2,7.3065576E2,4.6877942E2,-7.6137695E1,6.978175E2,2.594685E2,2.2386305E2,3.811751E1,8.507909E2,4.0550244E2,4.0327872E2,8.781587E0,5.0020667E2,2.2236584E3,3.1084775E3,1.5691304E3,6.2908203E1,4.1008478E2,6.304913E2,3.885939E2,6.2631447E1,-1.5399669E2,3.737349E2,9.9270294E2,2.7204163E2,-2.565075E2,5.4913934E2,2.0678265E2,-1.9743027E1,2.0777673E2,6.866577E2,1.048039E3,7.347347E2,1.1786152E1,3.2998914E2,5.425289E2,1.757836E2,-3.8914072E2,4.5057382E2,2.4982631E2,2.0167958E3,1.3604548E3,2.154976E3,1.2037153E3,2.268763E2,5.936207E2,6.822393E1,-3.9915237E1,3.076411E2,1.5614633E2,8.750233E1,1.5409097E2,-4.3286186E1,8.952229E1,3.8378604E2,5.2047577E1,-2.0171162E2,3.1843542E2,9.406408E2,8.057998E1,2.2572408E2,-8.953322E1,1.1570365E2,1.93724E2,7.465028E1,3.400303E1,-1.4634695E1,6.306534E1,1.5679553E1,1.8512103E2,3.239557E2,1.7218268E2,3.4374857E2,-3.6286503E1,1.8219136E2,3.0092288E2,-4.0771076E1,1.03101524E2,1.9215727E2,9.1674675E1,2.6170392E2,1.4850119E2,3.6512253E1,4.3802646E2,-1.6898354E2,-6.653561E1,1.564226E2,-2.887291E1,3.4661133E1,4.3637097E2,3.8515598E2,8.115408E2,2.2277989E2,-1.20685555E2],"categories":[0,1,2,3,4,5,6,7,10,11,12,13,15,16,17,18,19,21,22,23,0,2,3,4,5,7,11,12,13,15,16,17,19,21,22,23,1,1,2,3,4,0,3,4,7,8,9,10,12,14,15,16,17,18,19,20,21,22,23,0,1,2,3,4,5,6,7,9,10,11,12,13,14,15,16,17,18,19,20,21,22,23,0,1,4,5,6,7,8,10,11,12,15,16,17,19,20,21,22,23,2,1,1,2,5,7,11,14,19,1,2,3,4,0,4,0,1,2,4,5,6,7,8,9,10,11,12,13,15,16,17,18,19,20,21,22,23,0,1,2,3,4,6,7,8,11,12,13,14,15,16,17,18,19,21,22,23,1,15],"categories_nodes":[3,4,5,7,8,9,11,14,21,26,33,40,45,50,54,59],"categories_segments":[0,20,36,37,41,59,82,100,101,102,109,113,115,137,157,158],"categories_sizes":[20,16,1,4,18,23,18,1,1,7,4,2,22,20,1,1],"default_left":[0,0,0,1,1,1,0,1,1,1,0,1,0,0,1,0,0,0,0,0,0,1,0,0,0,0,1,0,0,0,0,0,0,1,0,0,0,0,0,0,1,0,0,0,0,1,0,0,0,0,1,0,0,0,1,0,0,0,0,1,0,0,0,0,0,0,0,0,0,0,0,0,0,0,0,0,0,0,0,0,0,0,0,0,0,0,0,0,0,0,0,0,0,0,0,0,0,0,0,0,0,0,0,0,0,0,0,0,0],"id":10,"left_children":[1,3,5,7,9,11,13,15,17,19,21,23,25,27,29,-1,31,33,35,37,39,41,43,45,47,49,51,53,55,57,59,61,-1,63,65,67,-1,69,71,73,75,77,79,81,83,85,87,89,91,93,95,97,99,-1,101,-1,103,105,-1,107,-1,-1,-1,-1,-1,-1,-1,-1,-1,-1,-1,-1,-1,-1,-1,-1,-1,-1,-1,-1,-1,-1,-1,-1,-1,-1,-1,-1,-1,-1,-1,-1,-1,-1,-1,-1,-1,-1,-1,-1,-1,-1,-1,-1,-1,-1,-1,-1,-1],"loss_changes":[1.5996173E8,2.1711648E7,1.0119898E8,1.287684E7,2.3384864E7,7.719514E7,1.5135056E7,2.67344E5,3.178964E6,1.2510992E7,2.3327624E7,7.918739E7,6.715443E7,2.0417776E7,4.833256E6,0E0,1.6135412E6,2.516952E6,7.601629E5,6.127566E6,1.165632E7,7.3035E6,1.3472442E7,2.4435712E7,1.0757934E8,7.607706E7,3.0570712E7,3.6377032E6,4.52238E7,1.695928E6,3.949426E6,1.2696611E5,0E0,2.464244E6,1.60745E6,5.309215E5,0E0,5.943288E6,4.720184E6,1.6345072E7,2.0439115E6,7.93188E5,4.961968E6,6.848423E6,2.2181548E7,1.830448E7,4.026323E7,1.484688E7,1.8623804E7,3.692717E7,3.993011E7,2.2324152E7,3.838504E6,0E0,1.3659908E6,0E0,1.355094E6,3.61056E5,0E0,1.2721564E6,0E0,0E0,0E0,0E0,0E0,0E0,0E0,0E0,0E0,0E0,0E0,0E0,0E0,0E0,0E0,0E0,0E0,0E0,0E0,0E0,0E0,0E0,0E0,0E0,0E0,0E0,0E0,0E0,0E0,0E0,0E0,0E0,0E0,0E0,0E0,0E0,0E0,0E0,0E0,0E0,0E0,0E0,0E0,0E0,0E0,0E0,0E0,0E0,0E0],"parents":[2147483647,0,0,1,1,2,2,3,3,4,4,5,5,6,6,7,7,8,8,9,9,10,10,11,11,12,12,13,13,14,14,16,16,17,17,18,18,19,19,20,20,21,21,22,22,23,23,24,24,25,25,26,26,27,27,28,28,29,29,30,30,31,31,33,33,34,34,35,35,37,37,38,38,39,39,40,40,41,41,42,42,43,43,44,44,45,45,46,46,47,47,48,48,49,49,50,50,51,51,52,52,54,54,56,56,57,57,59,59],"right_children":[2,4,6,8,10,12,14,16,18,20,22,24,26,28,30,-1,32,34,36,38,40,42,44,46,48,50,52,54,56,58,60,62,-1,64,66,68,-1,70,72,74,76,78,80,82,84,86,88,90,92,94,96,98,100,-1,102,-1,104,106,-1,108,-1,-1,-1,-1,-1,-1,-1,-1,-1,-1,-1,-1,-1,-1,-1,-1,-1,-1,-1,-1,-1,-1,-1,-1,-1,-1,-1,-1,-1,-1,-1,-1,-1,-1,-1,-1,-1,-1,-1,-1,-1,-1,-1,-1,-1,-1,-1,-1,-1],"split_conditions":[1.35E2,9.567E3,2.5E0,NaN,NaN,NaN,2.019E3,NaN,NaN,NaN,1.1E0,NaN,1.6E2,2.0966E4,NaN,4.8767737E2,6.81E3,6.073E3,9.003E3,2.017E3,9.85E4,NaN,2.017E3,2.018E3,1.6E0,1.5E0,NaN,2.017E3,2.1718E4,2.35E1,3.27E2,2.017E3,4.1008478E2,NaN,8.23E3,7.487E3,-1.5399669E2,1.5822E4,1.2042E4,1E0,NaN,1.8E4,2.017E3,7.85E1,1.6E0,NaN,2.8825E4,1.5E0,5.23E1,2.1E3,NaN,2.2E0,4.9766E4,4.5057382E2,NaN,2.0167958E3,2.3278E4,2.1E3,1.2037153E3,NaN,5.936207E2,6.822393E1,-3.9915237E1,3.076411E2,1.5614633E2,8.750233E1,1.5409097E2,-4.3286186E1,8.952229E1,3.8378604E2,5.2047577E1,-2.0171162E2,3.1843542E2,9.406408E2,8.057998E1,2.2572408E2,-8.953322E1,1.1570365E2,1.93724E2,7.465028E1,3.400303E1,-1.4634695E1,6.306534E1,1.5679553E1,1.8512103E2,3.239557E2,1.7218268E2,3.4374857E2,-3.6286503E1,1.8219136E2,3.0092288E2,-4.0771076E1,1.03101524E2,1.9215727E2,9.1674675E1,2.6170392E2,1.4850119E2,3.6512253E1,4.3802646E2,-1.6898354E2,-6.653561E1,1.564226E2,-2.887291E1,3.4661133E1,4.3637097E2,3.8515598E2,8.115408E2,2.2277989E2,-1.20685555E2],"split_indices":[5,3,7,0,0,2,1,4,0,0,7,0,5,3,2,0,3,3,3,1,3,2,1,1,7,7,0,1,3,6,3,1,0,4,3,3,0,3,3,7,4,3,1,6,7,0,3,7,6,3,0,7,3,0,2,0,3,3,0,0,0,0,0,0,0,0,0,0,0,0,0,0,0,0,0,0,0,0,0,0,0,0,0,0,0,0,0,0,0,0,0,0,0,0,0,0,0,0,0,0,0,0,0,0,0,0,0,0,0],"split_type":[0,0,0,1,1,1,0,1,1,1,0,1,0,0,1,0,0,0,0,0,0,1,0,0,0,0,1,0,0,0,0,0,0,1,0,0,0,0,0,0,1,0,0,0,0,1,0,0,0,0,1,0,0,0,1,0,0,0,0,1,0,0,0,0,0,0,0,0,0,0,0,0,0,0,0,0,0,0,0,0,0,0,0,0,0,0,0,0,0,0,0,0,0,0,0,0,0,0,0,0,0,0,0,0,0,0,0,0,0],"sum_hessian":[1.4372E4,4.792E3,9.58E3,2.35E2,4.557E3,9.534E3,4.6E1,1.2E1,2.23E2,1.852E3,2.705E3,1.605E3,7.929E3,2.8E1,1.8E1,9E0,3E0,2.12E2,1.1E1,6.7E1,1.785E3,1.334E3,1.371E3,7.76E2,8.29E2,7.471E3,4.58E2,1.5E1,1.3E1,1.1E1,7E0,2E0,1E0,6.8E1,1.44E2,9E0,2E0,3.3E1,3.4E1,1.743E3,4.2E1,6.5E1,1.269E3,1.023E3,3.48E2,4.26E2,3.5E2,4.51E2,3.78E2,4.897E3,2.574E3,3.23E2,1.35E2,2E0,1.3E1,1E0,1.2E1,7E0,4E0,2E0,5E0,1E0,1E0,1.3E1,5.5E1,8.3E1,6.1E1,5E0,4E0,5E0,2.8E1,1E0,3.3E1,1E0,1.742E3,1E0,4.1E1,2.6E1,3.9E1,8.74E2,3.95E2,9.09E2,1.14E2,2.53E2,9.5E1,9.3E1,3.33E2,3.23E2,2.7E1,3.08E2,1.43E2,2.62E2,1.16E2,3.55E2,4.542E3,3.22E2,2.252E3,3.11E2,1.2E1,6.5E1,7E1,7E0,6E0,1E0,1.1E1,4E0,3E0,1E0,1E0],"tree_param":{"num_deleted":"0","num_feature":"8","num_nodes":"109","size_leaf_vector":"0"}},{"base_weights":[2.4846596E2,3.216758E2,1.482139E2,2.796467E2,5.500452E2,2.724641E2,1.1627799E2,2.690003E2,7.017715E2,5.206648E2,1.5886693E3,4.456255E2,2.114952E2,3.5425994E-1,1.3786232E2,9.36609E2,2.6305875E2,6.2016376E2,2.1108708E3,6.0652203E2,3.2411774E2,1.2992622E3,1.7142762E3,9.2318195E2,3.4379483E2,4.487712E2,1.5897621E2,-3.3612344E2,2.660379E1,1.11435814E2,2.5785394E2,9.976087E2,-3.99356E2,2.7947574E2,6.6710625E1,7.526914E2,4.170612E2,2.6449155E3,1.6114323E2,9.0893915E2,4.7535638E2,1.9878127E2,8.934252E2,3.8627765E2,1.9997092E3,-1.6153711E2,9.8728815E2,2.230024E2,6.233596E2,4.852929E2,-3.4550436E2,4.5881384E2,1.0540295E2,-7.8223016E2,-2.6553424E2,1.5236464E2,-9.704268E0,1.2318584E2,-1.7043188E2,2.9654092E2,-4.5853268E2,1.5736231E1,3.5000623E2,9.168644E1,4.0311806E1,-3.0296637E2,2.4330807E1,3.5967752E2,1.4227515E2,5.340469E1,2.2938289E2,1.1585442E3,2.3003644E2,-1.2427735E0,7.375723E1,1.326956E2,3.4231653E2,1.0727631E2,3.025465E2,9.570018E1,-7.842848E1,1.4544003E2,3.6420584E2,3.6045898E2,5.5196842E1,7.127907E2,3.5560672E2,3.7147046E2,2.0082405E2,2.8348898E1,1.6456389E2,3.2886618E2,1.4640477E2,6.169949E2,1.3886934E2,-1.583088E2,1.5267235E2,-1.3274405E2,3.850703E1,-2.5049136E2,-6.986763E1,-3.1845346E1,-1.3689471E2,8.255275E1,-4.2678804E0,3.3296509E0,-6.95078E1,1.7063608E2,3.465382E1,-1.2273841E1,-1.0503087E2,1.0539516E2,-7.5215836E1,6.498405E0,-3.8498093E2],"categories":[0,1,2,4,5,6,7,9,11,12,14,16,19,22,23,1,0,1,2,3,4,5,6,7,9,10,11,12,13,15,17,19,20,21,22,23,0,1,2,4,5,6,7,8,9,10,11,12,13,14,16,17,18,19,21,22,23,0,3,4,7,8,11,12,14,15,16,17,18,19,21,22,23,0,1,2,3,1,0,1,2,3,4,5,6,7,9,11,12,13,14,16,18,19,20,22,23,0,1,2,3,4,5,7,8,9,10,11,12,13,14,15,16,17,18,19,20,21,22,23,1,6,9,2,0,2,3,4,6,7,8,9,10,11,12,13,15,16,17,18,19,20,21,22,23,7,14,0,1,2,3,4,5,6,7,8,9,10,11,12,13,15,16,17,18,19,20,21,22,23,1,9],"categories_nodes":[2,5,7,11,16,18,19,26,37,41,44,55,56,57,59],"categories_segments":[0,15,16,36,57,73,77,78,97,120,123,124,145,147,170],"categories_sizes":[15,1,20,21,16,4,1,19,23,3,1,21,2,23,2],"default_left":[0,0,1,0,0,1,0,1,0,0,0,1,0,0,0,0,1,0,1,1,0,0,0,0,0,0,1,0,0,0,0,0,0,0,0,0,0,1,0,0,0,1,0,0,1,0,0,0,0,0,0,0,0,0,0,1,1,1,0,1,0,0,0,0,0,0,0,0,0,0,0,0,0,0,0,0,0,0,0,0,0,0,0,0,0,0,0,0,0,0,0,0,0,0,0,0,0,0,0,0,0,0,0,0,0,0,0,0,0,0,0,0,0,0,0],"id":11,"left_children":[1,3,5,7,9,11,13,15,17,19,21,23,25,27,29,31,33,35,37,39,41,43,-1,45,47,49,51,53,55,57,59,61,-1,63,65,67,69,71,73,75,77,79,81,83,85,-1,87,89,91,93,-1,95,97,99,101,103,105,107,109,111,113,-1,-1,-1,-1,-1,-1,-1,-1,-1,-1,-1,-1,-1,-1,-1,-1,-1,-1,-1,-1,-1,-1,-1,-1,-1,-1,-1,-1,-1,-1,-1,-1,-1,-1,-1,-1,-1,-1,-1,-1,-1,-1,-1,-1,-1,-1,-1,-1,-1,-1,-1,-1,-1,-1],"loss_changes":[1.0544205E8,7.956851E7,2.40464E7,3.1346368E7,3.8537536E7,1.2997008E7,1.2082776E7,2.690928E7,1.8469776E7,2.0998432E7,3.4364736E7,1.5341432E7,1.1380772E7,6.7127195E6,1.2880248E7,9.628092E6,2.1858912E7,4.100424E6,8.94496E6,3.419699E7,2.7222724E7,2.0970472E7,0E0,5.77882E6,8.877396E6,1.0261814E7,1.2063352E7,1.524259E6,3.220602E6,1.1076288E7,2.0478672E7,9.367328E6,0E0,2.371968E7,8.216501E6,1.160788E7,5.430241E6,1.303724E7,4.302464E4,2.7980848E7,3.800176E7,1.7566436E7,8.45064E6,2.4175852E6,3.005384E6,0E0,3.478664E6,7.813025E6,4.584924E6,4.784064E6,0E0,5.902226E6,8.1180195E6,8.35E3,1.4415212E6,3.2364718E6,2.5332615E6,1.0892668E7,3.1039662E6,2.0981948E7,1.507708E7,0E0,0E0,0E0,0E0,0E0,0E0,0E0,0E0,0E0,0E0,0E0,0E0,0E0,0E0,0E0,0E0,0E0,0E0,0E0,0E0,0E0,0E0,0E0,0E0,0E0,0E0,0E0,0E0,0E0,0E0,0E0,0E0,0E0,0E0,0E0,0E0,0E0,0E0,0E0,0E0,0E0,0E0,0E0,0E0,0E0,0E0,0E0,0E0,0E0,0E0,0E0,0E0,0E0,0E0],"parents":[2147483647,0,0,1,1,2,2,3,3,4,4,5,5,6,6,7,7,8,8,9,9,10,10,11,11,12,12,13,13,14,14,15,15,16,16,17,17,18,18,19,19,20,20,21,21,23,23,24,24,25,25,26,26,27,27,28,28,29,29,30,30,31,31,33,33,34,34,35,35,36,36,37,37,38,38,39,39,40,40,41,41,42,42,43,43,44,44,46,46,47,47,48,48,49,49,51,51,52,52,53,53,54,54,55,55,56,56,57,57,58,58,59,59,60,60],"right_children":[2,4,6,8,10,12,14,16,18,20,22,24,26,28,30,32,34,36,38,40,42,44,-1,46,48,50,52,54,56,58,60,62,-1,64,66,68,70,72,74,76,78,80,82,84,86,-1,88,90,92,94,-1,96,98,100,102,104,106,108,110,112,114,-1,-1,-1,-1,-1,-1,-1,-1,-1,-1,-1,-1,-1,-1,-1,-1,-1,-1,-1,-1,-1,-1,-1,-1,-1,-1,-1,-1,-1,-1,-1,-1,-1,-1,-1,-1,-1,-1,-1,-1,-1,-1,-1,-1,-1,-1,-1,-1,-1,-1,-1,-1,-1,-1],"split_conditions":[2.1718E4,2E0,NaN,2.02E3,2.5E0,NaN,2.014E3,NaN,5.509E3,5.65E1,2.0966E4,NaN,2.5724E4,2.008E3,1.6E0,1.6E0,NaN,1.159E3,NaN,NaN,6.73E1,2.019E3,1.7142762E3,2.2199E4,5.33E1,1.65E2,NaN,4.5112E4,1.1E0,6.3305E4,6.9E1,6.23E2,-3.99356E2,1.5E2,1E0,5.33E1,2.555E3,NaN,5.675E3,2.018E3,5.04E1,NaN,2.018E3,2.017E3,NaN,-1.6153711E2,4.87E1,2.05E2,2.4916E4,2.011E3,-3.4550436E2,3.58E1,2.6376E4,2.007E3,9E4,NaN,NaN,NaN,2.016E3,NaN,2.016E3,1.5736231E1,3.5000623E2,9.168644E1,4.0311806E1,-3.0296637E2,2.4330807E1,3.5967752E2,1.4227515E2,5.340469E1,2.2938289E2,1.1585442E3,2.3003644E2,-1.2427735E0,7.375723E1,1.326956E2,3.4231653E2,1.0727631E2,3.025465E2,9.570018E1,-7.842848E1,1.4544003E2,3.6420584E2,3.6045898E2,5.5196842E1,7.127907E2,3.5560672E2,3.7147046E2,2.0082405E2,2.8348898E1,1.6456389E2,3.2886618E2,1.4640477E2,6.169949E2,1.3886934E2,-1.583088E2,1.5267235E2,-1.3274405E2,3.850703E1,-2.5049136E2,-6.986763E1,-3.1845346E1,-1.3689471E2,8.255275E1,-4.2678804E0,3.3296509E0,-6.95078E1,1.7063608E2,3.465382E1,-1.2273841E1,-1.0503087E2,1.0539516E2,-7.5215836E1,6.498405E0,-3.8498093E2],"split_indices":[3,7,0,1,7,2,1,0,3,6,3,0,3,1,7,7,0,3,4,2,6,1,0,3,6,5,0,3,7,3,6,3,0,5,7,6,3,0,3,1,6,0,1,1,2,0,6,5,3,1,0,6,3,1,3,0,0,0,1,0,1,0,0,0,0,0,0,0,0,0,0,0,0,0,0,0,0,0,0,0,0,0,0,0,0,0,0,0,0,0,0,0,0,0,0,0,0,0,0,0,0,0,0,0,0,0,0,0,0,0,0,0,0,0,0],"split_type":[0,0,1,0,0,1,0,1,0,0,0,1,0,0,0,0,1,0,1,1,0,0,0,0,0,0,1,0,0,0,0,0,0,0,0,0,0,1,0,0,0,1,0,0,1,0,0,0,0,0,0,0,0,0,0,1,1,1,0,1,0,0,0,0,0,0,0,0,0,0,0,0,0,0,0,0,0,0,0,0,0,0,0,0,0,0,0,0,0,0,0,0,0,0,0,0,0,0,0,0,0,0,0,0,0,0,0,0,0,0,0,0,0,0,0],"sum_hessian":[1.4372E4,8.305E3,6.067E3,7.016E3,1.289E3,1.239E3,4.828E3,6.845E3,1.71E2,1.255E3,3.4E1,3.21E2,9.18E2,7.58E2,4.07E3,5.9E1,6.786E3,1.63E2,8E0,8.72E2,3.83E2,3.3E1,1E0,5.5E1,2.66E2,1.65E2,7.53E2,5.4E1,7.04E2,3.337E3,7.33E2,5.8E1,1E0,6.262E3,5.24E2,9.7E1,6.6E1,6E0,2E0,2.62E2,6.1E2,3.15E2,6.8E1,1.5E1,1.8E1,2E0,5.3E1,1.87E2,7.9E1,1.62E2,3E0,1.13E2,6.4E2,6E0,4.8E1,1.57E2,5.47E2,3.204E3,1.33E2,6.96E2,3.7E1,9E0,4.9E1,5.305E3,9.57E2,6E0,5.18E2,3.6E1,6.1E1,4E1,2.6E1,3E0,3E0,1E0,1E0,8.8E1,1.74E2,5.01E2,1.09E2,2.5E2,6.5E1,3.1E1,3.7E1,2E0,1.3E1,1.1E1,7E0,2.8E1,2.5E1,1.35E2,5.2E1,1.6E1,6.3E1,1E0,1.61E2,5E0,1.08E2,2.5E1,6.15E2,5E0,1E0,2.7E1,2.1E1,9E1,6.7E1,5.01E2,4.6E1,5.3E1,3.151E3,7.8E1,5.5E1,6.33E2,6.3E1,2.4E1,1.3E1],"tree_param":{"num_deleted":"0","num_feature":"8","num_nodes":"115","size_leaf_vector":"0"}}]},"name":"gbtree"},"learner_model_param":{"base_score":"5E-1","boost_from_average":"1","num_class":"0","num_feature":"8","num_target":"1"},"objective":{"name":"reg:squarederror","reg_loss_param":{"scale_pos_weight":"1"}}},"version":[1,7,4]}